[[-0.0047904448583722115, -0.3324258625507355, 0.09184917062520981, 0.2512851059436798, -0.0018522515892982483, 0.1360650211572647, 0.22745683789253235, 0.4604414105415344, -0.20119930803775787, -0.004410922527313232, -0.2126840353012085, 0.41619840264320374, 0.47827327251434326, 0.02585521899163723, -0.12980316579341888, -0.1926717609167099, 0.14639322459697723, -0.1694900244474411, -0.015319665893912315, 0.4772636294364929, 0.4760018289089203, -0.10452231019735336, -0.1173219308257103, -0.2009776532649994, -0.11671046912670135, 0.24203801155090332, 0.360143780708313, 0.3644845187664032, 0.4819774925708771, 0.07150108367204666, 0.5209389925003052, 0.1727832853794098], [-0.2903047800064087, 0.19926553964614868, 0.4724741578102112, 0.7089930772781372, -0.03928259760141373, 0.7624574303627014, -0.24351167678833008, 0.04142136126756668, 0.23300938308238983, -0.028246641159057617, -0.3923918604850769, -0.3475792109966278, -0.06551393866539001, 0.2231919914484024, 0.3803657293319702, -0.36082231998443604, 0.6641374230384827, 0.2439567893743515, -0.2954491376876831, -0.029732272028923035, 0.057966917753219604, 0.621297299861908, 0.35245847702026367, -0.37105703353881836, 0.35057562589645386, 0.7550038695335388, 0.11811012029647827, -0.04578820616006851, 0.02337103709578514, 0.7006260752677917, -0.011724060401320457, 1.0064340829849243], [0.16428127884864807, -0.41395479440689087, 0.1761920005083084, 0.7284062504768372, -0.04139692708849907, 0.7249400615692139, -0.2712906301021576, -0.09850277006626129, 0.21741382777690887, -0.0008254051208496094, 0.22542054951190948, -0.2889028787612915, -0.2989860773086548, -0.23890292644500732, -0.5100955963134766, 0.2473335862159729, 0.7400531768798828, -0.33862411975860596, 0.19760020077228546, -0.16825442016124725, -0.06504921615123749, 0.7536652088165283, -0.4699084758758545, 0.2045224905014038, -0.4675169289112091, 0.7939110994338989, 0.06741737574338913, -0.1232847198843956, -0.11751009523868561, 0.7085713744163513, -0.16671431064605713, 1.0337409973144531]]
[[0.2424975484609604, 0.33242568373680115, 1.1845036745071411, 0.10191403329372406, 0.0, 0.4659866988658905, -0.3950231373310089, -0.4776778221130371, 0.35438093543052673, 0.0, 0.37870487570762634, -0.19592022895812988, -0.1137506365776062, 0.03470524400472641, 0.3893716037273407, 0.30566662549972534, 0.08235466480255127, 0.2636849284172058, 0.2932148575782776, -0.2792623043060303, -0.7109919190406799, -0.09191122651100159, 0.23464928567409515, 0.3666018545627594, 0.23343156278133392, 0.49287423491477966, -0.9370381236076355, -0.8199772238731384, -0.38783136010169983, 0.43211644887924194, -0.5193115472793579, 0.6278188824653625]]
[[-0.12368525564670563, 0.024230176582932472, 0.2182490974664688, -0.18371257185935974, -0.35354310274124146, 0.5887853503227234, -0.02594744600355625, -0.06876794993877411, -0.026731038466095924, -0.016256891191005707, -0.09251771122217178, 0.5157882571220398, -0.2843482196331024, -0.034966371953487396, -0.25255295634269714, -0.33955928683280945, -0.17050714790821075, -0.19295549392700195, -0.2285124659538269, -0.07350321859121323, 0.5354120135307312, -0.06615187227725983, -0.04306740313768387, 0.5047986507415771, -0.2069660723209381, -0.17835882306098938, -0.20731854438781738, -0.19332750141620636, -0.0434490405023098, -0.010137410834431648, -0.21133126318454742, 0.4901736378669739], [-0.44471853971481323, -0.345417320728302, 0.43462610244750977, -0.33917778730392456, -0.014817058108747005, 0.1432817280292511, 0.02485797181725502, -0.33972615003585815, 0.03343737870454788, -0.0012336485087871552, -0.3825984299182892, 0.44183456897735596, -0.45037880539894104, 0.030804933980107307, -0.3942282199859619, -0.36463773250579834, -0.43128469586372375, -0.49399399757385254, -0.36152440309524536, -0.45027339458465576, 0.4088094234466553, -0.5329177379608154, -0.4079976975917816, 0.4833305776119232, -0.3618593215942383, -0.5398753881454468, -0.3706773817539215, -0.3930421769618988, -0.3671177923679352, 0.02728964574635029, -0.39601242542266846, 0.464872270822525], [0.17470942437648773, 0.465676873922348, 0.17862483859062195, -0.009779992513358593, -0.1251470297574997, 0.7890734672546387, -0.0017533983336761594, 0.006541550625115633, 0.014932511374354362, -0.009470831602811813, 0.08612153679132462, 0.2367812544107437, 0.2162012904882431, 0.021492749452590942, -0.042890481650829315, -0.04745250195264816, 0.48290038108825684, 0.16652381420135498, 0.10458403825759888, 0.1054830402135849, 0.23304398357868195, 0.240565687417984, 0.09959163516759872, 0.1566588580608368, 0.09266788512468338, 0.19466519355773926, -0.030723722651600838, 0.07527000457048416, -0.15971212089061737, -0.055677831172943115, 0.03184496611356735, 0.6082757711410522], [0.07304298132658005, 0.1881343424320221, 0.16003543138504028, 0.1427975594997406, 0.03345830366015434, 0.10929597169160843, 0.004540105350315571, 0.19823874533176422, -0.054471954703330994, -0.04852921888232231, 0.1424679309129715, -0.1580440104007721, 0.23013171553611755, -0.041239820420742035, 0.2515944242477417, 0.12915530800819397, 0.2529890835285187, 0.09266591817140579, 0.11988991498947144, 0.24172861874103546, -0.18952679634094238, 0.12801897525787354, 0.20895683765411377, -0.2328711897134781, 0.12080740928649902, 0.06608236581087112, 0.1596674919128418, 0.1695670187473297, 0.0688934475183487, -0.020502110943198204, 0.11609865725040436, 0.02073189988732338], [0.017520133405923843, -0.03871507570147514, 0.047902729362249374, -0.0017585158348083496, -0.04083521291613579, 0.0092010498046875, -0.01895911805331707, -0.027094651013612747, 0.03529484197497368, -0.03333359956741333, -0.032083943486213684, -0.024805402383208275, -0.024638522416353226, -0.04529013857245445, -0.01860358566045761, 0.017770234495401382, -0.045507609844207764, 0.03680192306637764, 0.035015929490327835, 0.04238085821270943, 0.02067502960562706, -0.046824969351291656, 0.03901107236742973, -0.019817054271697998, -0.0012190714478492737, 0.03408442810177803, -0.039025675505399704, 0.021928932517766953, 0.00904153659939766, 0.021425727754831314, -0.04179035499691963, -0.0253813024610281], [0.1949380338191986, 0.07604135572910309, 0.19277004897594452, 0.18555954098701477, -0.04446670785546303, 0.27279579639434814, -0.02525077760219574, 0.10968988388776779, 0.008117727935314178, 0.03605267032980919, 0.212763249874115, -0.13499991595745087, 0.1973446160554886, -0.03441987186670303, 0.32160982489585876, 0.09835871309041977, 0.14860928058624268, 0.1588142067193985, 0.20980532467365265, 0.1670401245355606, -0.12430786341428757, 0.10559489578008652, 0.1282476931810379, -0.10938355326652527, 0.18596580624580383, 0.14400407671928406, 0.12718333303928375, 0.17712870240211487, 0.056209299713373184, -0.013184242881834507, 0.18190324306488037, 0.2086813747882843], [-0.6956945657730103, 1.1673625707626343, -0.5401778221130371, 0.8381403088569641, 1.0348948240280151, -1.0734772682189941, -0.03607174754142761, 0.7870221138000488, -0.032390296459198, 0.00605764240026474, -0.5929462909698486, -0.13061240315437317, 0.20158550143241882, -0.04991893842816353, -1.3441662788391113, -0.2978554964065552, 0.877105176448822, -0.608259379863739, -0.5870375037193298, 0.749176025390625, -0.1120905727148056, -0.609542965888977, 0.756514310836792, -0.12812429666519165, -0.5489861965179443, -0.5435014367103577, -0.2966062128543854, -0.46671509742736816, 0.7000928521156311, -0.011443711817264557, -0.4743864834308624, -0.7142184972763062], [-0.021027997136116028, 0.3817288279533386, 0.02975805103778839, 0.3026175796985626, 0.19913937151432037, -0.19238059222698212, 0.04229273647069931, 0.28772035241127014, -0.010664571076631546, 0.013106513768434525, -0.0038989593740552664, -0.4772909879684448, 0.23825713992118835, -0.03690147399902344, -0.14443323016166687, 0.10077643394470215, 0.34485718607902527, 0.06532285362482071, 0.01305968128144741, 0.3230334520339966, -0.43163883686065674, -0.052679628133773804, 0.2502448856830597, -0.4296477735042572, 0.03698452562093735, 0.04057738184928894, 0.050666987895965576, 0.0698261708021164, 0.24473392963409424, 0.022194204851984978, 0.06622198224067688, -0.17536163330078125], [-0.1409221738576889, 1.136491298675537, -0.15984202921390533, -0.04207160696387291, -0.5756340026855469, 1.0877354145050049, -0.009638327173888683, -0.01272288616746664, -0.03517793118953705, 0.009077154099941254, -0.3551250696182251, 0.4942043423652649, 0.6400435566902161, -0.045390136539936066, -1.2243432998657227, -0.6253056526184082, 1.1059963703155518, -0.23478174209594727, -0.3384453058242798, 0.2819143235683441, 0.5022854804992676, 0.022708140313625336, 0.18162082135677338, 0.4092200994491577, -0.4876803457736969, -0.11877687275409698, -0.5828293561935425, -0.4362986981868744, -0.09408874809741974, 0.031622469425201416, -0.3748157024383545, 0.31486666202545166], [-0.030527805909514427, 0.02297670766711235, -0.008614599704742432, 0.010596893727779388, 0.03785276785492897, 0.005981028079986572, -0.0035657882690429688, -0.024108577519655228, 0.01791343465447426, -0.017467152327299118, -0.032205868512392044, -0.025123585015535355, 0.014346245676279068, -0.04036834090948105, -0.00829681009054184, -0.02115638367831707, 0.02067789062857628, -0.04452132061123848, 0.04629776254296303, 0.019761625677347183, 0.029527079313993454, -0.004762411117553711, -0.0022678859531879425, -0.007954679429531097, -0.040792059153318405, 0.044131722301244736, 0.02485528215765953, -0.011485803872346878, -0.00468449667096138, 0.026608023792505264, 0.0071798935532569885, -0.014943324029445648], [-0.6301246881484985, -0.46835076808929443, 0.557594358921051, -0.25053173303604126, -0.1018364280462265, 0.2389829456806183, -0.03285468369722366, -0.1281752586364746, -0.028937924653291702, -0.03364294767379761, -0.6493900418281555, 0.5753039121627808, -0.5195034742355347, -0.008514940738677979, -0.4335808753967285, -0.5953934192657471, -0.5196743011474609, -0.602867066860199, -0.5625507235527039, -0.35908469557762146, 0.615402102470398, -0.7160897254943848, -0.17491459846496582, 0.5809528231620789, -0.5850977301597595, -0.6532274484634399, -0.6073086857795715, -0.5809248089790344, -0.08424507826566696, -0.02359028346836567, -0.5682187676429749, 0.45147404074668884], [0.5154972076416016, 0.9634447693824768, -0.7704790830612183, -0.41287508606910706, 0.5171858668327332, -0.445840060710907, -0.028421930968761444, -0.5701583623886108, -0.029224766418337822, -0.049939241260290146, 0.4922073781490326, -0.5623935461044312, -0.3489605188369751, -0.00044481828808784485, -0.2585964500904083, 0.5145475268363953, 0.22733817994594574, 0.6098148226737976, 0.5481826066970825, -0.37999528646469116, -0.557727575302124, 0.6156947016716003, -0.48872098326683044, -0.5057243704795837, 0.48006775975227356, 0.6313894391059875, 0.4882274568080902, 0.5161778926849365, -0.4969419538974762, 0.002258729189634323, 0.5705991387367249, -0.6031425595283508], [-0.060041725635528564, 0.6011142730712891, -0.040463242679834366, 0.3744942843914032, 0.2606559991836548, -0.0627502053976059, 0.019499868154525757, 0.3274374306201935, -0.0481264591217041, 0.005760155618190765, -0.005949148442596197, -0.5448005199432373, 0.2290249615907669, 0.04052753001451492, -0.341489315032959, 0.02077358216047287, 0.4916927218437195, -0.06375492364168167, -0.03627074509859085, 0.4029487669467926, -0.547368586063385, -0.031097305938601494, 0.3281175494194031, -0.4974544942378998, -0.06716138869524002, -0.08638331294059753, 0.007820315659046173, 0.0009181334171444178, 0.20548085868358612, -0.06122798100113869, -0.03791007772088051, -0.09111256152391434], [-0.308045893907547, 0.20944681763648987, 0.2631039619445801, 0.21578572690486908, 0.1036076620221138, 0.3860204517841339, 0.016031019389629364, 0.2232993096113205, 0.012168380431830883, -0.04465928301215172, -0.3660983145236969, 0.35606902837753296, 0.16507644951343536, -0.0336301326751709, -0.3128346800804138, -0.356478750705719, 0.23297901451587677, -0.33802229166030884, -0.3758973181247711, 0.2018708735704422, 0.3392448127269745, -0.2612397372722626, 0.3033055067062378, 0.309171587228775, -0.3848137855529785, -0.30702224373817444, -0.3209588825702667, -0.38788723945617676, 0.20569367706775665, -0.0487295426428318, -0.3574729561805725, 0.39726951718330383], [1.0296794176101685, 0.9759061336517334, -0.4020276665687561, -1.5510551929473877, -1.1383154392242432, 1.5307801961898804, 0.0038950147572904825, -1.3522756099700928, -0.0018511158414185047, -0.04238865524530411, 0.7748008966445923, 0.3651038408279419, -0.9516535401344299, -0.023077012971043587, 0.37808936834335327, 0.09305206686258316, 0.027486322447657585, 0.8287397623062134, 0.7575799822807312, -1.1946096420288086, 0.30426979064941406, 1.0988415479660034, -1.2084778547286987, 0.382667601108551, 0.6901987195014954, 0.9300561547279358, 0.35941872000694275, 0.6499810814857483, -1.3782323598861694, -0.02330133318901062, 0.5620169043540955, 0.008482323959469795], [-0.472647100687027, -0.4063037931919098, 0.4092433750629425, 0.034431278705596924, -0.2027052938938141, 0.2831367552280426, 0.0027733270544558764, 0.08368801325559616, 0.003100849688053131, -0.02996392361819744, -0.44282251596450806, 0.5741554498672485, -0.09267785400152206, -0.031594373285770416, -0.35373973846435547, -0.4398675560951233, -0.34313085675239563, -0.446161687374115, -0.4384988844394684, -0.010046795010566711, 0.5456910729408264, -0.4560821056365967, 0.052151791751384735, 0.6285660266876221, -0.4216114580631256, -0.48981136083602905, -0.41598615050315857, -0.42420893907546997, 0.17683562636375427, -0.04127562791109085, -0.4472622871398926, 0.4458960294723511], [0.1097605749964714, -0.01103111170232296, 0.2617247700691223, 0.19159656763076782, 0.023411976173520088, 0.11612331867218018, -0.00444000493735075, 0.19772686064243317, 0.011758409440517426, 0.0012362822890281677, 0.166579931974411, -0.18145087361335754, 0.11145338416099548, 0.028702467679977417, 0.2910423278808594, 0.19331970810890198, 0.09109136462211609, 0.17863483726978302, 0.15546387434005737, 0.23833543062210083, -0.154076486825943, 0.1254851222038269, 0.1508985161781311, -0.14768745005130768, 0.19357556104660034, 0.08422915637493134, 0.19711773097515106, 0.14752382040023804, 0.11139079928398132, 0.0017077889060601592, 0.15194448828697205, 0.042722854763269424], [-0.6543142795562744, -0.33683258295059204, 0.520442545413971, 0.4406820237636566, -0.19716086983680725, 0.2697274088859558, -0.018817424774169922, 0.453183650970459, -0.03222813084721565, -0.04725773259997368, -0.6061896085739136, 0.363767147064209, 0.25680962204933167, 0.0011802671942859888, -0.6445929408073425, -0.5003949403762817, -0.16894471645355225, -0.6299724578857422, -0.6098427176475525, 0.32000860571861267, 0.37216296792030334, -0.7870585322380066, 0.34407898783683777, 0.42459210753440857, -0.5684170722961426, -0.6676547527313232, -0.5057483911514282, -0.5792980790138245, 0.5173869729042053, 0.05203605070710182, -0.5639845132827759, 0.5940783619880676], [-0.035171620547771454, 0.06560894846916199, 0.2357540726661682, -0.2769436836242676, -0.4037932753562927, 0.6954084634780884, -0.01854465901851654, -0.1453200727701187, -0.03692086786031723, 0.04260481521487236, -0.1473008096218109, 0.517012894153595, -0.2400669902563095, -0.033639147877693176, -0.1689082831144333, -0.3123762011528015, -0.1022200807929039, -0.13476203382015228, -0.20725254714488983, -0.11644712090492249, 0.5229181051254272, -0.12696048617362976, -0.06583626568317413, 0.5136911273002625, -0.1937202513217926, -0.14825260639190674, -0.2121579796075821, -0.20763665437698364, -0.05721597373485565, 0.012177965603768826, -0.23692823946475983, 0.5541977286338806], [-0.05201239138841629, 0.3891091048717499, -0.0057906946167349815, 0.3173430562019348, 0.1920987069606781, -0.057326000183820724, 0.004665355198085308, 0.30478280782699585, 0.021411489695310593, 0.04409119114279747, 0.0311814583837986, -0.4568635821342468, 0.17466436326503754, 0.024889837950468063, -0.2134903073310852, 0.10072916001081467, 0.36571434140205383, -0.010298201814293861, 0.04338265582919121, 0.31619733572006226, -0.5017890334129333, -0.06500469148159027, 0.3150535225868225, -0.49604904651641846, 0.03630340099334717, -0.0020280873868614435, 0.04685370624065399, 0.052887775003910065, 0.2733401954174042, -0.048359207808971405, 0.08680534362792969, -0.08707407116889954], [0.035084158182144165, 0.3316613733768463, -0.030811207368969917, 0.35824647545814514, 0.17430336773395538, -0.17001204192638397, 0.016969673335552216, 0.24368444085121155, 0.0323571152985096, -0.019314540550112724, 2.3900490759842796e-06, -0.2860892117023468, 0.15098145604133606, 0.0005566658801399171, -0.050605591386556625, 0.10067745298147202, 0.33728715777397156, 0.05658101290464401, 0.029640046879649162, 0.34201452136039734, -0.287097692489624, 0.038539785891771317, 0.2692788243293762, -0.36163073778152466, 0.018031619489192963, 0.022981122136116028, 0.15108036994934082, 0.0317261777818203, 0.23359143733978271, -0.03865877911448479, 0.11557741463184357, -0.1894964575767517], [0.23951806128025055, -0.8436095118522644, 0.7266237735748291, 0.09685854613780975, -0.16528548300266266, 0.10866136103868484, 0.00599789759144187, 0.08381520956754684, 0.006135228089988232, -0.037554215639829636, 0.4043563902378082, -0.22353680431842804, 0.0023083460982888937, -0.037556689232587814, 0.9828479290008545, 0.5654011964797974, -0.5316742658615112, 0.3268078863620758, 0.38390058279037476, -0.08371821790933609, -0.17365585267543793, 0.1813097447156906, 0.0154157355427742, -0.1918058693408966, 0.478821724653244, 0.23694048821926117, 0.4969821274280548, 0.3891763985157013, 0.10432242602109909, 0.032181039452552795, 0.4383988082408905, 0.27064305543899536], [-0.17319776117801666, -1.2041879892349243, 1.3326747417449951, -0.5499029755592346, -0.7753469347953796, 1.3256601095199585, -0.0025940199848264456, -0.35623154044151306, 0.042735349386930466, -0.0007767193019390106, -0.30794984102249146, 0.3365895450115204, 0.09650398045778275, -0.008325218223035336, 0.8276966214179993, -0.6920900940895081, -0.8767387866973877, -0.2855894863605499, -0.3792594075202942, -0.5192915797233582, 0.34363672137260437, -0.11046164482831955, -0.2577906548976898, 0.419596403837204, -0.3537903428077698, -0.3336324095726013, -0.695698618888855, -0.5019182562828064, -0.06716399639844894, -0.0016905330121517181, -0.5633703470230103, 1.8603333234786987], [-0.5765015482902527, -0.487815797328949, 0.5034319162368774, -0.06720487773418427, -0.035603005439043045, 0.21568340063095093, 0.04845878854393959, -0.04644864425063133, -0.008076798170804977, -0.006279099732637405, -0.6047050356864929, 0.5916503071784973, -0.33314764499664307, -0.039760101586580276, -0.4241902828216553, -0.560296893119812, -0.47259780764579773, -0.542701005935669, -0.5501656532287598, -0.2300737053155899, 0.6010617613792419, -0.6186612248420715, -0.04460243880748749, 0.5913715958595276, -0.5433772206306458, -0.5455860495567322, -0.5516586899757385, -0.49973827600479126, -0.0308771301060915, 0.026342548429965973, -0.493054062128067, 0.48052430152893066], [-0.13089755177497864, -1.2649855613708496, 1.373741865158081, -0.6150785684585571, -0.7583851218223572, 1.3958836793899536, -0.024954190477728844, -0.33203354477882385, -0.03801256790757179, 0.02558520808815956, -0.31908029317855835, 0.32711061835289, 0.08299844712018967, 0.026024295017123222, 0.8312254548072815, -0.6580639481544495, -0.9063054919242859, -0.3461039960384369, -0.4184226989746094, -0.48167237639427185, 0.3506496846675873, -0.09338827431201935, -0.3215325176715851, 0.41397538781166077, -0.3193400800228119, -0.3305370807647705, -0.6580454111099243, -0.5005854368209839, -0.09215513616800308, 0.0015009068883955479, -0.5318973064422607, 1.939228892326355], [0.17074500024318695, 0.19530890882015228, 0.16798126697540283, 0.20754852890968323, -0.05661237612366676, 0.22149460017681122, 0.019230499863624573, 0.1816871017217636, -0.04835669323801994, 0.008143030107021332, 0.13471069931983948, -0.22081349790096283, 0.22536179423332214, -0.05024521052837372, 0.21215257048606873, 0.12743450701236725, 0.2541109621524811, 0.14675147831439972, 0.0930996909737587, 0.2469431310892105, -0.19393610954284668, 0.1588585078716278, 0.1932133138179779, -0.1466955840587616, 0.17490346729755402, 0.16038839519023895, 0.15846900641918182, 0.14523302018642426, 0.14304406940937042, -0.049119044095277786, 0.14540521800518036, 0.12318529188632965], [-0.055848315358161926, 0.24704790115356445, -0.04843594878911972, 0.39375412464141846, 0.2722170948982239, -0.4440174102783203, -0.020161161199212074, 0.3426080048084259, -0.00998668558895588, -0.019112860783934593, 0.03927472606301308, -0.40978968143463135, 0.07845520973205566, -0.050521258264780045, 0.012181129306554794, 0.22657573223114014, 0.2408960908651352, 0.05781715735793114, 0.07695680111646652, 0.2929041385650635, -0.40854325890541077, -0.024637974798679352, 0.280244380235672, -0.36209967732429504, 0.0868414044380188, 0.05616316199302673, 0.14250260591506958, 0.13962645828723907, 0.21368826925754547, -0.039265166968107224, 0.12927985191345215, -0.4926832616329193], [-0.019235841929912567, 0.2837119698524475, -0.030677666887640953, 0.391879141330719, 0.35077524185180664, -0.39881253242492676, -0.024735495448112488, 0.3556405305862427, 0.02665790542960167, -0.04699139669537544, 0.0740264356136322, -0.3744741678237915, 0.1175750344991684, -0.03425010293722153, -0.13880230486392975, 0.18269337713718414, 0.31448009610176086, -0.0001353934349026531, 0.08384286612272263, 0.3676854074001312, -0.4104810059070587, -0.08446013182401657, 0.2737269401550293, -0.3829300105571747, 0.06990917772054672, 0.05599372833967209, 0.1892373412847519, 0.06346362829208374, 0.2570780813694, -0.056375499814748764, 0.10758215934038162, -0.4478001892566681], [-0.027935627847909927, 0.34245947003364563, -0.04493875056505203, 0.3299352824687958, 0.14615188539028168, -0.1428411304950714, 0.0019036858575418591, 0.27431032061576843, 0.043249618262052536, 0.0019241087138652802, 0.011341833509504795, -0.453981876373291, 0.2366115003824234, 0.018501538783311844, -0.11734433472156525, 0.07060500234365463, 0.3171080946922302, 0.0297795869410038, 0.0391940176486969, 0.3398776948451996, -0.4820515215396881, -0.04838793724775314, 0.33157557249069214, -0.5018813610076904, 0.05123099684715271, 0.04357938468456268, 0.06587645411491394, 0.037355419248342514, 0.2612914443016052, 0.0281588863581419, 0.09824005514383316, -0.1058071106672287], [0.21995386481285095, 0.0071394480764865875, 0.28076305985450745, 0.06746983528137207, -0.04289046302437782, 0.3768630921840668, -0.008844563737511635, 0.10642199963331223, 0.006798322778195143, 0.007679354399442673, 0.242163747549057, -0.04417037218809128, 0.16016072034835815, -0.034822117537260056, 0.43864455819129944, 0.21129298210144043, 0.12676949799060822, 0.21953184902668, 0.22599108517169952, 0.07737298309803009, -0.043621912598609924, 0.16467371582984924, 0.12210845202207565, -0.073179692029953, 0.17405875027179718, 0.16755349934101105, 0.1367414891719818, 0.22114978730678558, 0.004124083556234837, 0.021533135324716568, 0.20515255630016327, 0.26653656363487244], [-0.007155225612223148, 0.3913617730140686, -0.07568561285734177, 0.36983785033226013, 0.22294840216636658, -0.1324138194322586, -0.028162039816379547, 0.29076772928237915, -0.025155600160360336, -0.012986969202756882, 0.03652941808104515, -0.4210279583930969, 0.21315716207027435, -0.02471812814474106, -0.1676729917526245, 0.13591431081295013, 0.38027504086494446, 0.017354197800159454, 0.062154486775398254, 0.3736415207386017, -0.4661308825016022, -0.06353173404932022, 0.32916906476020813, -0.4317057728767395, 0.01864808239042759, -0.015222282148897648, 0.13052132725715637, 0.038553062826395035, 0.22131730616092682, -0.03709179908037186, 0.047918595373630524, -0.2236357480287552], [0.19371257722377777, 0.08786898851394653, 0.23759597539901733, 0.13231094181537628, -0.0329708606004715, 0.3322564363479614, -0.025902532041072845, 0.18237118422985077, -0.0018533244729042053, -0.04401824623346329, 0.17655837535858154, -0.0718575045466423, 0.20878157019615173, 0.03878501430153847, 0.2926420569419861, 0.19052644073963165, 0.16551198065280914, 0.08853747695684433, 0.1578173041343689, 0.14922191202640533, -0.0939093604683876, 0.13471956551074982, 0.11822495609521866, -0.06117399409413338, 0.16036759316921234, 0.16074654459953308, 0.1243530884385109, 0.12612415850162506, 0.1283741444349289, -0.0025769202038645744, 0.12305205315351486, 0.2011905014514923]]
[[0.2138523906469345, 0.39920806884765625, 0.22244226932525635, -0.29715290665626526, -0.4572996497154236, 1.0712486505508423, -0.010330988094210625, -0.23517632484436035, -0.007022974081337452, 0.0, 0.12842704355716705, 0.32411131262779236, 0.2162795513868332, -0.017396336421370506, 0.022644167765975, -0.12797664105892181, 0.375489741563797, 0.1354324072599411, 0.0910903811454773, -0.08055441081523895, 0.31753915548324585, 0.2875104248523712, -0.1669672727584839, 0.333240807056427, 0.06380056589841843, 0.18307584524154663, -0.07167965918779373, 0.013121563009917736, -0.3059462010860443, -0.010252473875880241, -0.009211603552103043, 0.9356586337089539]]
[[-0.19200386106967926, -0.22500959038734436, 0.005998190492391586, -0.03281757980585098, -0.001863766461610794, 0.3043201267719269, 0.304907888174057, 0.30462929606437683, 0.317854642868042, 0.3035493791103363, 0.01280534639954567, 0.264925092458725, 0.3128076493740082, 0.2524571120738983, -0.2783975899219513, 0.025788575410842896, -0.5434483289718628, -0.21681758761405945, -0.5138639807701111, -0.28343522548675537, 0.09406326711177826, -0.01608346588909626, 0.2769693434238434, -0.2535048723220825, -0.6184497475624084, -0.3950522243976593, -0.24451503157615662, -0.23116807639598846, -1.8699063062667847, 0.3767354488372803, -0.27813035249710083, -0.02160455845296383], [0.004431866109371185, 0.08059364557266235, 0.0067618535831570625, -0.013327248394489288, -0.022130323573946953, 0.27072930335998535, 0.2691288888454437, 0.2590114176273346, 0.2340296059846878, 0.2079341858625412, 0.016445130109786987, 0.2624933421611786, 0.27937477827072144, 0.2518891394138336, 0.032558027654886246, 0.019288374111056328, -0.34874120354652405, 0.023440223187208176, -0.44153445959091187, 0.047870080918073654, 0.26634085178375244, -0.0020745391957461834, 0.24399049580097198, 0.06530182808637619, -0.4321129620075226, -0.38417384028434753, 0.06248104199767113, 0.05821806192398071, -1.621610164642334, -0.257816344499588, 0.06069226935505867, -0.010463587008416653], [0.10303211957216263, 0.11531711369752884, 0.015085488557815552, -0.04174375906586647, -0.035230208188295364, -0.2501037120819092, -0.37556880712509155, -0.2224944531917572, -0.2398114800453186, -0.38375115394592285, 0.0038716846611350775, -0.3655121326446533, -0.2296133041381836, -0.3188396990299225, 0.16587097942829132, -0.03898198902606964, 0.42587652802467346, 0.1718454360961914, 0.42912575602531433, 0.1210312619805336, 0.818903923034668, 0.023842711001634598, -0.39300957322120667, 0.14786292612552643, 0.4167577028274536, 0.39377012848854065, 0.1449185162782669, 0.15451180934906006, 1.730940341949463, 0.5678916573524475, 0.16574059426784515, -0.029412895441055298], [0.14183327555656433, 0.08953772485256195, -0.03265521302819252, 0.012599916197359562, -0.012421369552612305, -0.16633467376232147, -0.20445387065410614, -0.18482686579227448, -0.2096492350101471, -0.19350020587444305, -0.029125357046723366, -0.1245485469698906, -0.20723268389701843, -0.16794539988040924, 0.1574428826570511, -0.06268249452114105, -0.30764251947402954, 0.14632290601730347, -0.30450692772865295, 0.09247167408466339, 0.6198689937591553, 0.021184166893363, -0.12969428300857544, 0.10792139172554016, -0.25902432203292847, -0.2863088846206665, 0.10025403648614883, 0.09024526178836823, 0.140618234872818, -0.4129226803779602, 0.10879050195217133, -0.007665485143661499], [0.3664446473121643, 0.06566987931728363, 0.029862284660339355, 0.010617953725159168, -0.036340631544589996, -0.5442823171615601, -0.5721825361251831, -0.5589900612831116, -0.48636141419410706, -0.53485506772995, -0.04629486799240112, -0.5532750487327576, -0.5442456007003784, -0.5571253299713135, 0.10419218242168427, 0.02804058976471424, -0.0036122524179518223, -0.027878783643245697, -0.006680212914943695, 0.058481745421886444, 0.5752707123756409, 0.03767124563455582, -0.5727713704109192, 0.07056749612092972, -0.02347167395055294, 0.011687501333653927, 0.36018887162208557, 0.39181166887283325, 0.018772346898913383, -2.308922052383423, 0.38187897205352783, 0.03591188043355942], [0.23720982670783997, 0.17637337744235992, 0.015244321897625923, -0.02978736162185669, -0.016208969056606293, 0.2127981334924698, 0.2259422093629837, 0.2591162621974945, 0.25989773869514465, 0.27029645442962646, -0.023281510919332504, 0.2309872806072235, 0.25121983885765076, 0.27256670594215393, 0.22568920254707336, -0.011267589405179024, 0.3309944272041321, 0.21804913878440857, 0.3098021447658539, 0.21478286385536194, 0.5291379690170288, -0.005393777508288622, 0.22956199944019318, 0.20044928789138794, 0.4345054626464844, 0.37862324714660645, 0.20719607174396515, 0.21131466329097748, 1.6103193759918213, 0.7308111786842346, 0.2071760892868042, -0.020676393061876297], [-0.0019429509993642569, 0.04106461629271507, 0.017176099121570587, -0.020244646817445755, 0.04073191061615944, -0.03093058429658413, 0.051122549921274185, 0.04571201279759407, -0.010183931328356266, 0.01584240049123764, 0.0024512293748557568, 0.014183416962623596, -0.023491408675909042, 0.009511888027191162, -0.009388360194861889, -0.03322406858205795, 0.02157016098499298, 0.01427158247679472, 0.047565530985593796, 0.013227708637714386, 0.01687360182404518, 0.040161289274692535, -0.04342162236571312, -0.0370074063539505, 0.03941486403346062, -0.048264335840940475, -0.019003985449671745, -0.025220947340130806, 0.017062854021787643, -0.03642285242676735, 0.012417440302670002, 0.0027922543231397867], [0.08187718689441681, 0.20110569894313812, -0.04925640672445297, -0.020692195743322372, -0.021353065967559814, -0.17783477902412415, -0.210017129778862, -0.2085670679807663, -0.1673821210861206, -0.1957434117794037, -0.03219783678650856, -0.2153342366218567, -0.2014954537153244, -0.16810841858386993, 0.1803922802209854, -0.015291734598577023, -0.1572643667459488, 0.1322414129972458, -0.2216048538684845, 0.14175887405872345, 0.6601014733314514, 0.012084482237696648, -0.20966868102550507, 0.1670934110879898, -0.14213889837265015, -0.21459725499153137, 0.15364238619804382, 0.14888402819633484, 0.683703601360321, -0.372582346200943, 0.15252743661403656, -0.015666360035538673], [-0.037114206701517105, 0.0015101295430213213, 0.0048006996512413025, -0.011157691478729248, -0.03195074945688248, -0.04902186617255211, -0.03480064868927002, -0.010205816477537155, 0.034091535955667496, 0.013684023171663284, 0.02628752961754799, 0.02395070716738701, -0.020226920023560524, -0.04669405147433281, -0.00329660065472126, 0.0014209747314453125, -0.04131131246685982, 0.02607923001050949, -0.03885519504547119, 0.02880595251917839, 0.03863253816962242, 0.009439993649721146, 0.04532644525170326, -0.024320116266608238, 0.03352050855755806, 0.003199514700099826, 0.03081665188074112, 0.021197529509663582, -0.012202180922031403, -0.04369090497493744, -0.00511856097728014, 0.04408547654747963], [0.046672139316797256, 0.011557530611753464, -0.026819659397006035, 0.03973870351910591, -0.020616233348846436, -0.02665630541741848, -0.039996445178985596, -0.02413705550134182, -0.03711581230163574, -0.014692295342683792, -0.043525587767362595, -0.022959185764193535, -0.02023172378540039, -0.031726375222206116, 0.04897037521004677, -0.020302439108490944, -0.036308370530605316, 0.022255945950746536, 0.041492294520139694, -0.0069283731281757355, 0.0051136501133441925, 0.03340418264269829, -0.04838300868868828, 0.037254009395837784, 0.001197613775730133, -0.0423765666782856, -0.006720792502164841, 0.0053400397300720215, -0.030731165781617165, 0.03664935752749443, 0.032700154930353165, 0.04479743167757988], [-0.2539884150028229, -0.2772007882595062, 0.03109276294708252, 0.011294461786746979, -0.02790151908993721, 0.16600534319877625, 0.1623549610376358, 0.2042992115020752, 0.2084924280643463, 0.13868151605129242, -0.040526509284973145, 0.17792028188705444, 0.18159665167331696, 0.1321115493774414, -0.23997117578983307, 0.019717814400792122, -0.4330720901489258, -0.22673319280147552, -0.4135621190071106, -0.26230570673942566, 0.2633605897426605, -0.03983398526906967, 0.18688438832759857, -0.19503918290138245, -0.46750950813293457, -0.24922123551368713, -0.2561438977718353, -0.18590989708900452, -1.7950339317321777, 0.212002694606781, -0.2663789689540863, -0.03162793442606926], [-0.4380050599575043, -0.4183715283870697, -0.021899480372667313, -0.031222378835082054, -0.022756755352020264, -0.07820064574480057, -0.18192709982395172, -0.15080735087394714, -0.08808495849370956, -0.05092640593647957, -0.01475816871970892, -0.20345059037208557, -0.12334301322698593, -0.1885382980108261, -0.43969184160232544, 0.02907755970954895, 0.38868004083633423, -0.4378524422645569, 0.39281803369522095, -0.43218839168548584, -0.34411177039146423, -0.012069085612893105, -0.13905499875545502, -0.39068862795829773, 0.39619481563568115, 0.45259997248649597, -0.4824158847332001, -0.4172568619251251, 1.7150949239730835, 0.452676385641098, -0.44512951374053955, -0.020127706229686737], [0.13926328718662262, 0.157936692237854, -0.030206970870494843, 0.029756518080830574, 0.006058715283870697, 0.012227125465869904, -0.025635652244091034, 0.0016866769874468446, -0.0016490775160491467, -0.030561203137040138, -0.04608659818768501, 0.0003247448184993118, -0.009520536288619041, 0.0350593626499176, 0.053498100489377975, -0.06891705095767975, -0.27293655276298523, 0.058546897023916245, -0.2723251283168793, 0.14355172216892242, 0.5435778498649597, -0.06310160458087921, 0.029116272926330566, 0.0864800438284874, -0.3072550594806671, -0.3740707039833069, 0.13326744735240936, 0.12984809279441833, -0.4978763163089752, -0.0654725506901741, 0.13019432127475739, -0.002570555079728365], [0.0034935674630105495, 0.009374240413308144, 0.023221168667078018, -0.0089789517223835, -0.025710606947541237, -0.008101392537355423, 0.046369340270757675, 0.04692811146378517, -0.013302408158779144, 0.0046082851476967335, -0.03286335617303848, -0.035452187061309814, 0.01948164775967598, 0.04156075790524483, -0.029562924057245255, 0.009550593793392181, 0.023277195170521736, 0.005012846551835537, -0.036309774965047836, 0.036591727286577225, -0.03701458126306534, 0.00745835155248642, -0.0001424066722393036, 0.022792918607592583, 0.00243200920522213, -0.022777413949370384, 0.015043569728732109, 0.045755889266729355, -0.013639509677886963, -0.007972597144544125, -0.0009853049414232373, -0.026640521362423897], [-0.5502163767814636, -0.3860441744327545, 0.027837134897708893, -0.038758013397455215, 0.016709115356206894, -0.16346284747123718, -0.26713499426841736, -0.17612063884735107, -0.19753040373325348, -0.2626194953918457, -0.04923434928059578, -0.24331867694854736, -0.16671644151210785, -0.20590682327747345, -0.3833145201206207, -0.0407177172601223, -0.29738858342170715, -0.3657154142856598, -0.5199931263923645, -0.35842952132225037, 1.101301908493042, -0.0116602573543787, -0.22670160233974457, -0.4076308012008667, -0.3041225075721741, -0.6110511422157288, -0.5396549701690674, -0.5739906430244446, -0.09695553779602051, 1.366011142730713, -0.5284109115600586, 0.033493321388959885], [-0.2800314128398895, -0.23227903246879578, -0.015327785164117813, 0.03199515864253044, -0.02934502437710762, 0.003663526149466634, 0.07946892082691193, -0.05107365548610687, -0.021582281216979027, 0.03233839198946953, -0.013369478285312653, 0.04135218262672424, -0.029315320774912834, 0.08242756128311157, -0.306436687707901, -0.05851299315690994, -0.1462278515100479, -0.2559114396572113, -0.24044394493103027, -0.2883472144603729, 0.347138911485672, -0.014115494675934315, 0.06704985350370407, -0.2714599370956421, -0.22499564290046692, -0.007307772058993578, -0.25585654377937317, -0.22408059239387512, -0.674770176410675, -0.04549027606844902, -0.2179654836654663, -0.02551804669201374], [0.10171651095151901, 0.02569524757564068, 0.020855030044913292, -0.016246184706687927, -0.003200329840183258, 0.09091369062662125, 0.1553979367017746, 0.11679431796073914, 0.14939028024673462, 0.12514615058898926, 0.00374958710744977, 0.14386522769927979, 0.07922329008579254, 0.147189661860466, 0.08932116627693176, -0.06522024422883987, -0.3076534569263458, 0.09898588061332703, -0.39464637637138367, 0.067762590944767, 0.3930703103542328, -0.01355880405753851, 0.1741042137145996, 0.08979731053113937, -0.40171265602111816, -0.3728829324245453, 0.0937877967953682, 0.09627072513103485, -1.2529791593551636, -0.17218059301376343, 0.07188128679990768, 0.008098378777503967], [-0.20938146114349365, -0.27481839060783386, 0.018616246059536934, 0.011280328035354614, 0.038161229342222214, 0.21935346722602844, 0.23483474552631378, 0.17549823224544525, 0.19138681888580322, 0.26775437593460083, -0.02872786484658718, 0.27830415964126587, 0.22645923495292664, 0.21010568737983704, -0.22222065925598145, 0.02226485125720501, -0.38988569378852844, -0.29083365201950073, -0.3307429254055023, -0.226349338889122, 0.13807344436645508, -0.005157074425369501, 0.25672897696495056, -0.29799526929855347, -0.3504425287246704, -0.21403808891773224, -0.3026573657989502, -0.2568075358867645, -2.016972303390503, 0.23391209542751312, -0.21212445199489594, -0.0047269463539123535], [-0.271121621131897, -0.3155517876148224, 0.023937873542308807, 0.00828492734581232, -0.04107784107327461, 0.15505199134349823, 0.20920704305171967, 0.14920039474964142, 0.18261967599391937, 0.1636471152305603, -0.01824357360601425, 0.1981704980134964, 0.19577477872371674, 0.15892340242862701, -0.27177974581718445, -0.02797951176762581, -0.3668139576911926, -0.27256304025650024, -0.38530921936035156, -0.3009897470474243, 0.2156582623720169, 0.03559493646025658, 0.21624283492565155, -0.299177348613739, -0.363494873046875, -0.16367007791996002, -0.22391709685325623, -0.270325243473053, -1.8897112607955933, 0.18421398103237152, -0.26376476883888245, 0.048850011080503464], [0.12861250340938568, 0.19113488495349884, 0.01940864510834217, -0.020746443420648575, -0.021960068494081497, -0.061539843678474426, -0.01450466550886631, -0.04536139965057373, -0.07319548726081848, -0.0423237644135952, -0.029312586411833763, -0.023218337446451187, -0.10658077150583267, -0.09816133975982666, 0.1100367084145546, -0.04353797063231468, -0.2947136461734772, 0.18471385538578033, -0.2646401524543762, 0.18304041028022766, 0.5807245373725891, -0.06181231141090393, -0.01781494729220867, 0.1496092528104782, -0.270598441362381, -0.3563535809516907, 0.08771675825119019, 0.09867405891418457, -0.49845361709594727, -0.29578226804733276, 0.15128673613071442, -0.05012252926826477], [-0.4091542065143585, -0.41964244842529297, -0.003095392370596528, -0.04377584531903267, -0.02608027495443821, -0.15930594503879547, -0.17791908979415894, -0.1760091632604599, -0.11068195104598999, -0.14732041954994202, -0.008360618725419044, -0.16067467629909515, -0.2029539793729782, -0.14510294795036316, -0.45466309785842896, -0.00011686485231621191, 0.38132455945014954, -0.46480292081832886, 0.4362225830554962, -0.42985424399375916, -0.3130146563053131, -0.029981205239892006, -0.09686808288097382, -0.45636269450187683, 0.4417838156223297, 0.4613851308822632, -0.41299599409103394, -0.43729862570762634, 1.7404392957687378, 0.4817342162132263, -0.441706120967865, -0.004981985781341791], [-0.251253604888916, -0.23092064261436462, 0.0035080944653600454, -0.041540779173374176, -0.042067550122737885, 0.34557783603668213, 0.43477410078048706, 0.3588015139102936, 0.37941670417785645, 0.45366567373275757, 0.0015663756057620049, 0.42684563994407654, 0.3858342468738556, 0.4146071970462799, -0.26112455129623413, 0.012315578758716583, -0.47216111421585083, -0.2310148924589157, -0.44060954451560974, -0.2366190254688263, -0.02123674377799034, 0.025959057733416557, 0.4128228724002838, -0.2877695858478546, -0.5029168725013733, -0.35300958156585693, -0.21043309569358826, -0.21567760407924652, -2.0616512298583984, 0.4200870096683502, -0.20153751969337463, 0.04575279727578163], [0.1725110113620758, 0.20456771552562714, -0.045380719006061554, 0.007588110864162445, -0.019961941987276077, -0.12460851669311523, -0.1620851308107376, -0.1575658619403839, -0.1502276510000229, -0.13718286156654358, 0.02241419441998005, -0.1005839928984642, -0.12135098874568939, -0.1636478751897812, 0.12870386242866516, -0.01700344868004322, -0.16240212321281433, 0.16631248593330383, -0.19402557611465454, 0.18669629096984863, 0.5772278904914856, -0.038006607443094254, -0.1268816590309143, 0.1657613068819046, -0.1429571509361267, -0.22818602621555328, 0.17309653759002686, 0.11008759588003159, 0.3928469717502594, -0.33550092577934265, 0.1690419763326645, 0.008579988032579422], [-0.44132208824157715, -0.40617841482162476, 0.00821896456182003, 0.0357268862426281, 0.022754255682229996, -0.09071322530508041, -0.08381228148937225, -0.12505483627319336, -0.11564619839191437, -0.05669508874416351, -0.019065074622631073, -0.13311141729354858, -0.05118527263402939, -0.07936546206474304, -0.4652113616466522, -0.04680527374148369, 0.399026095867157, -0.42533305287361145, 0.43768757581710815, -0.4156321883201599, -0.2795807421207428, 0.028598519042134285, -0.10502497106790543, -0.4467156231403351, 0.3813598155975342, 0.43644559383392334, -0.43477314710617065, -0.45901304483413696, 1.6868555545806885, 0.43066442012786865, -0.45681363344192505, 0.00569526944309473], [-0.28788936138153076, -0.2982928454875946, -0.042075492441654205, 0.0057672359980642796, -0.017264533787965775, 0.13597488403320312, 0.10251171141862869, 0.1413414031267166, 0.13846661150455475, 0.11402279138565063, 0.044989053159952164, 0.11760271340608597, 0.1058422178030014, 0.16224601864814758, -0.2182944416999817, -0.029534796252846718, -0.38032448291778564, -0.3006562888622284, -0.37397339940071106, -0.24934671819210052, 0.24758687615394592, -0.011701458133757114, 0.09972026199102402, -0.27658140659332275, -0.34282252192497253, -0.18999917805194855, -0.24019037187099457, -0.23131471872329712, -1.6727310419082642, 0.18592192232608795, -0.2503321170806885, -0.04900599643588066], [-0.21568067371845245, -0.260063499212265, -0.05978113040328026, -0.0038578768726438284, 0.026617709547281265, 0.2943776249885559, 0.31477028131484985, 0.2921060621738434, 0.25382620096206665, 0.31844887137413025, -0.03744705766439438, 0.3029983937740326, 0.27156850695610046, 0.31773442029953003, -0.21032318472862244, -0.036398280411958694, -0.3826572299003601, -0.2299376279115677, -0.3860286474227905, -0.29850372672080994, 0.07649491727352142, -0.022496381774544716, 0.3434349596500397, -0.26276978850364685, -0.3906788229942322, -0.274107962846756, -0.2560459077358246, -0.2189735323190689, -2.069911003112793, 0.24278251826763153, -0.2841438949108124, -0.029848730191588402], [-0.2148730456829071, -0.3054437041282654, -0.014911409467458725, -0.038094766438007355, 0.016602028161287308, 0.0661349669098854, 0.07121211290359497, 0.06728535890579224, 0.07829884439706802, 0.023915646597743034, 0.03661055490374565, 0.056979887187480927, 0.07383113354444504, 0.06720063090324402, -0.20817165076732635, -0.04340289905667305, -0.21550370752811432, -0.2992452085018158, -0.23656107485294342, -0.2515370547771454, 0.28699731826782227, 0.032147008925676346, 0.011408912017941475, -0.2376474142074585, -0.08892688155174255, -0.08586829900741577, -0.23804309964179993, -0.2779528498649597, -1.0221076011657715, -0.02161209098994732, -0.29653847217559814, 0.002772218780592084], [-0.2389393001794815, -0.27911922335624695, -0.06034591794013977, 0.005604219157248735, 0.01877225562930107, 0.12235161662101746, 0.15673774480819702, 0.1002589613199234, 0.10346754640340805, 0.16098976135253906, 0.012796467170119286, 0.14948907494544983, 0.09760821610689163, 0.10449424386024475, -0.2743077874183655, -0.020656971260905266, -0.3090745508670807, -0.2794977128505707, -0.3244888186454773, -0.23140697181224823, 0.23851920664310455, 0.037653855979442596, 0.12237516790628433, -0.21020683646202087, -0.2333148568868637, -0.06705878674983978, -0.2878977656364441, -0.2256777584552765, -1.6558210849761963, 0.10475513339042664, -0.25585073232650757, 0.002360305283218622], [0.21386921405792236, 0.22369509935379028, -0.00785055011510849, -0.03685225173830986, 0.03007115051150322, -0.34593290090560913, -0.41172337532043457, -0.3740772008895874, -0.3435133099555969, -0.361706405878067, 0.00394783029332757, -0.44337359070777893, -0.3714922070503235, -0.4174986481666565, 0.19841814041137695, -0.008562473580241203, -0.1422869712114334, 0.239352285861969, -0.14146099984645844, 0.24421238899230957, 0.6662524342536926, 0.029597509652376175, -0.4420679807662964, 0.18026621639728546, -0.15697693824768066, -0.2643773853778839, 0.22453883290290833, 0.16755804419517517, 0.6979688405990601, -0.5019696950912476, 0.19812898337841034, -0.030474107712507248], [0.004624503664672375, 0.02889782004058361, 0.0032864436507225037, -0.022168099880218506, 0.018858160823583603, 0.04036591202020645, 0.02211245521903038, -0.027040885761380196, 0.06202336400747299, -0.021860582754015923, 0.01269567385315895, 0.05618034303188324, 0.0547778382897377, 0.010181520134210587, 0.04027976095676422, 0.044888388365507126, -0.037475742399692535, 0.023445993661880493, -0.03886532038450241, 0.047356706112623215, 0.007080447860062122, 0.04083540663123131, -0.025992978364229202, -0.02412189543247223, -0.013449426740407944, 0.05559776350855827, -0.02731976844370365, 0.03087969869375229, -0.04794786125421524, 0.05036081373691559, 0.0014370871940627694, -0.006239853799343109], [-0.2184428721666336, -0.2942442297935486, -0.057496558874845505, -0.00902358815073967, -0.044252123683691025, 0.127448171377182, 0.12386669218540192, 0.05565530061721802, 0.1253364384174347, 0.15177276730537415, 0.030983543023467064, 0.11957428604364395, 0.11576464027166367, 0.117205910384655, -0.2569611668586731, -0.03778214752674103, -0.22738564014434814, -0.28624504804611206, -0.2945050299167633, -0.3040185868740082, 0.3026139438152313, -0.041674885898828506, 0.12455742806196213, -0.2585701644420624, -0.1892768144607544, -0.11630163341760635, -0.22864952683448792, -0.25302958488464355, -1.5451630353927612, 0.05250849574804306, -0.2891427278518677, 0.017095036804676056], [1.8823245763778687, 0.25669676065444946, -0.02742762491106987, -0.04335680231451988, -0.014018069952726364, -1.034864068031311, -0.9915083646774292, -1.0114202499389648, -1.0709868669509888, -0.9892401695251465, 0.016926201060414314, -1.0692981481552124, -1.0068175792694092, -1.0785059928894043, 0.2939555048942566, -0.011330803856253624, 0.3231194317340851, 0.2754138112068176, 0.4413594901561737, 0.27908432483673096, 1.8204312324523926, -0.033497508615255356, -1.0737314224243164, 0.268387109041214, 0.337883323431015, 0.42226001620292664, 1.9298169612884521, 1.881292462348938, 1.7380447387695312, 2.137363910675049, 1.9446592330932617, 0.027148544788360596]]
[[0.24241214990615845, 0.16984310746192932, -0.022581089287996292, -0.005982148926705122, 0.0, 0.34698447585105896, 0.4522215723991394, 0.38281360268592834, 0.32947057485580444, 0.5744422078132629, -0.013602561317384243, 0.436114639043808, 0.35381627082824707, 0.47067195177078247, 0.1625688076019287, -0.017544221132993698, 0.23771539330482483, 0.16021767258644104, 0.26535141468048096, 0.1534499078989029, -0.10483713448047638, -0.01128476019948721, 0.40894386172294617, 0.16229228675365448, 0.23416082561016083, 0.273307204246521, 0.22911441326141357, 0.2437078356742859, 0.06451641768217087, 0.7590601444244385, 0.21816417574882507, -0.017506252974271774]]
[[2.0914146900177], [0.5117331147193909], [-0.0011284444481134415], [0.036351460963487625], [-0.04545987769961357], [-0.9892387986183167], [-0.9916030168533325], [-1.4789146184921265], [-1.0409510135650635], [-1.3025434017181396], [0.03822299838066101], [-0.9011049866676331], [-1.304410696029663], [-1.1416882276535034], [0.5201224088668823], [0.022880392149090767], [-0.4217566251754761], [0.5339127779006958], [-0.47596076130867004], [0.5100015997886658], [0.7737218141555786], [0.045712098479270935], [-0.8911707401275635], [0.5157778859138489], [-0.43624481558799744], [-0.45531877875328064], [2.063955783843994], [2.0983574390411377], [-2.08435320854187], [-2.6501452922821045], [2.042433500289917], [0.022349141538143158]]
[[-0.1104312613606453]]
