[[1.4260895252227783, 1.42391037940979, 1.4301024675369263], [1.3860846757888794, 1.4562257528305054, 1.3751431703567505]]
[-7.913715671747923e-05, -4.580619861371815e-05, -7.830881077097729e-05]
[[1.0105414390563965, 1.6497734785079956, 1.5815571546554565, 1.539204478263855, 1.2839734554290771, 1.587939739227295, 1.3251680135726929, 1.546738624572754, 1.250117301940918, 1.4883991479873657], [0.9544237852096558, 1.5990320444107056, 1.518768310546875, 1.4633607864379883, 1.2829132080078125, 1.5380960702896118, 1.3294341564178467, 1.514668583869934, 1.2628421783447266, 1.4883055686950684], [1.0405114889144897, 1.5825495719909668, 1.5884313583374023, 1.485463261604309, 1.2877472639083862, 1.5807595252990723, 1.2791328430175781, 1.6004486083984375, 1.2915623188018799, 1.5292341709136963]]
[0.07172869890928268, -2.4810476303100586, -2.408034086227417, -2.3547019958496094, -1.747755765914917, -2.3833491802215576, -1.8064000606536865, -2.373159885406494, -1.621935486793518, -2.2809159755706787]
[[-0.9336743354797363, -1.0442489385604858, 1.5040521621704102, -1.2017868757247925, -1.276413083076477, 1.957844614982605, -1.5953718423843384, -0.9460765719413757, -0.6381098031997681, -1.8807177543640137, 1.94545316696167, -1.6843082904815674, -1.842728853225708, -1.3917733430862427, -1.001305103302002, -1.728958249092102, -1.8338204622268677, -1.0456840991973877, -1.4054173231124878, -0.8509019613265991], [0.9657773375511169, 0.9800718426704407, -1.1129398345947266, 1.0732218027114868, 1.1846145391464233, -1.6322115659713745, 1.433646321296692, 0.9307865500450134, 0.7911848425865173, 1.6272577047348022, -1.6122909784317017, 1.5339773893356323, 1.6113818883895874, 1.1892039775848389, 0.957939088344574, 1.5114747285842896, 1.5797568559646606, 0.956088662147522, 1.201786994934082, 0.8750723004341125], [0.7403163313865662, 0.8140290379524231, -1.0645270347595215, 0.8945116996765137, 0.8968867659568787, -1.4602971076965332, 1.2019462585449219, 0.7617456912994385, 0.6546830534934998, 1.3557778596878052, -1.433416485786438, 1.2739734649658203, 1.454673171043396, 1.0442955493927002, 0.7871255874633789, 1.2707281112670898, 1.3936477899551392, 0.7732104063034058, 0.9825081825256348, 0.7498893737792969], [0.6390266418457031, 0.6954081058502197, -0.8895686268806458, 0.7590010166168213, 0.7846860289573669, -1.2370970249176025, 0.9461364150047302, 0.6238300800323486, 0.5266140103340149, 1.2069082260131836, -1.2466455698013306, 1.097922921180725, 1.1733146905899048, 0.8735489249229431, 0.699849545955658, 1.080976128578186, 1.1666017770767212, 0.6643640398979187, 0.7858834862709045, 0.6339370012283325], [0.1928536295890808, 0.1878490000963211, -0.09715325385332108, 0.20709694921970367, 0.148464635014534, 0.3100900948047638, -0.022254103794693947, 0.2235477864742279, 0.24357225000858307, -0.15026922523975372, 0.2958918511867523, -0.005928406957536936, -0.23069977760314941, 0.09129870682954788, 0.20161885023117065, -0.13035231828689575, -0.21842136979103088, 0.23623928427696228, 0.13812081515789032, 0.22488631308078766], [0.8157985806465149, 0.8603390455245972, -1.0404012203216553, 0.8772765398025513, 0.9166524410247803, -1.4253450632095337, 1.1505755186080933, 0.7816121578216553, 0.6717458963394165, 1.374015212059021, -1.4270899295806885, 1.280413269996643, 1.3814523220062256, 1.0409897565841675, 0.8330391645431519, 1.362104892730713, 1.383130431175232, 0.792131781578064, 0.9948782920837402, 0.7415805459022522], [0.2661510109901428, 0.21816956996917725, -0.23603440821170807, 0.19867061078548431, 0.167822003364563, 0.2141687422990799, 0.06237942725419998, 0.2851253151893616, 0.2937198281288147, -0.09038404375314713, 0.17562276124954224, 0.01872241124510765, -0.09767450392246246, 0.17846614122390747, 0.26024961471557617, -0.029247265309095383, -0.08780397474765778, 0.3005025088787079, 0.21412940323352814, 0.23935121297836304], [0.768863320350647, 0.850239634513855, -1.022202730178833, 0.9003089666366577, 0.9184582233428955, -1.4227566719055176, 1.1231238842010498, 0.7826041579246521, 0.607466995716095, 1.3582402467727661, -1.3697189092636108, 1.200791358947754, 1.343087077140808, 0.938318133354187, 0.7554187178611755, 1.2475430965423584, 1.317933201789856, 0.8214453458786011, 0.9464942812919617, 0.7191179394721985], [0.12315092235803604, 0.11161988228559494, -0.025867439806461334, 0.07789112627506256, 0.07425522059202194, 0.5472528338432312, -0.15489868819713593, 0.15164810419082642, 0.18796132504940033, -0.3650779128074646, 0.563899040222168, -0.2245970070362091, -0.4122936427593231, -0.046467095613479614, 0.11305705457925797, -0.3083176016807556, -0.3814179599285126, 0.17178016901016235, 0.03411434218287468, 0.20011593401432037], [0.6456289291381836, 0.6951307058334351, -0.8065515756607056, 0.700639009475708, 0.7955028414726257, -1.126185417175293, 0.9051051735877991, 0.6574344038963318, 0.5698985457420349, 1.0939584970474243, -1.1701480150222778, 0.9956831336021423, 1.0959630012512207, 0.8232486844062805, 0.7216926217079163, 1.0073022842407227, 1.1442757844924927, 0.6547719240188599, 0.8276294469833374, 0.6284082531929016]]
[-1.715701699256897, -1.7681056261062622, 1.8995401859283447, -1.8008365631103516, -1.8465639352798462, 1.9999901056289673, -1.9902300834655762, -1.7278965711593628, -1.5949283838272095, -2.174717903137207, 2.0045294761657715, -2.2098567485809326, -2.14743971824646, -1.882602572441101, -1.757077693939209, -2.0762696266174316, -2.1433420181274414, -1.7530732154846191, -1.8765727281570435, -1.6977453231811523]
[[0.3635387420654297], [0.395750492811203], [-1.4392330646514893], [0.4264217019081116], [0.46052297949790955], [-1.5718719959259033], [0.5919042825698853], [0.3649202883243561], [0.2815256118774414], [0.7567042708396912], [-1.5743409395217896], [0.6954042315483093], [0.7493269443511963], [0.484253466129303], [0.38628408312797546], [0.7007306218147278], [0.7341349124908447], [0.3874390721321106], [0.48602697253227234], [0.3434586822986603]]
[-1.1254572868347168]
