[[-0.022216785699129105, 0.04261292517185211, -0.026324033737182617, 0.03578890115022659, -0.033709991723299026, -0.11332522332668304, -0.04556567594408989, -0.08626357465982437, 0.09529310464859009, 0.03794898837804794, -0.03438783809542656, -0.00784456729888916, 0.08123906701803207, -0.015504403971135616, -0.05693759769201279, -0.1181374043226242, 0.04283828288316727, -0.10677991807460785, -0.001961648464202881, 0.12260542064905167, -0.012742914259433746, 0.014220032840967178, 0.07767809927463531, 0.022265853360295296, -0.022687338292598724, 0.05068359896540642, 0.0408492274582386, -0.02439734898507595, -0.025899488478899002, 0.038187216967344284, 0.014417421072721481, 0.10401108115911484, 0.07824354618787766, -0.04390556737780571, -0.10075419396162033, -0.09380127489566803, 0.07151398807764053, -0.09281666576862335, -0.01754153147339821, 0.09254968911409378, -0.040938057005405426, -0.022503022104501724, -0.02159884013235569, -0.0903664082288742, -0.1015721783041954, 0.11862806975841522, -0.07823402434587479, 0.05002893507480621, 0.05491631105542183, 0.04446784406900406, 0.11117322742938995, -0.0380716435611248, 0.06611356139183044, 0.06700991839170456, -0.03152649849653244, -0.06079312786459923, -0.019943270832300186, 0.06289178878068924, 0.09456773847341537, -0.015728773549199104, -0.014302719384431839, 0.019610369578003883, -0.06907228380441666, 0.037871044129133224, 0.01592000015079975, 0.04932860657572746, -0.08710602670907974, 0.07078880816698074, -0.09168218076229095, -0.10824239253997803, 0.06805367022752762, -0.02305406704545021, -0.08113466203212738, -0.08564825356006622, -0.039607882499694824, -0.08427523076534271, -0.08511396497488022, 0.09000827372074127, -0.019123157486319542, -0.03580064699053764, -0.10216902941465378, 0.08090285211801529, 0.0023621011059731245, -0.005399446003139019, -0.021664833649992943, -0.005169976502656937, -0.06188667193055153, -0.07333175092935562, -0.027349073439836502, -0.03086468018591404, 0.03288644924759865, 0.07101735472679138, 0.13126887381076813, 0.0719335675239563, -0.07046999782323837, -0.004353664815425873, 0.12556150555610657, -0.03020705096423626, -0.016614533960819244, 0.011248226277530193, 0.008718348108232021, -0.09429258108139038, 0.009969271719455719, -0.019568396732211113, -0.09398694336414337, -0.008096694946289062, 0.03009028732776642, -0.03093521110713482, -0.021391544491052628, -0.02387288026511669, 0.0858129933476448, -0.012895247898995876, -0.014068660326302052, 0.0014419854851439595, -0.08507230877876282, -0.004379709251224995, 0.01270420290529728, -0.006413258612155914, 0.1186494529247284, 0.04842027276754379, -0.028319383040070534, -0.022690629586577415, 0.06968854367733002, 0.02541983127593994, 0.05737689509987831, -0.022562449797987938, 0.10058339685201645, 0.057158034294843674], [-0.03837287425994873, 0.05401138216257095, -0.025295615196228027, -0.007275484036654234, -0.03110731951892376, 0.08727656304836273, -0.02984696626663208, -0.08931612223386765, 0.012433861382305622, -0.1839013397693634, -0.03923993185162544, -0.027920318767428398, -0.0588654950261116, 0.10542406886816025, 0.05568647012114525, 0.045578595250844955, -0.0014905069256201386, 0.05176578834652901, -0.03397919237613678, -0.04264701530337334, -0.033435478806495667, 0.08704457432031631, -0.04218548908829689, 0.1173570454120636, 0.07494014501571655, 0.10367239266633987, -0.04108618199825287, -0.04059114307165146, 0.08024945110082626, -0.06066177412867546, 0.05728240683674812, 0.06392529606819153, 0.04452391713857651, -0.03605710342526436, 0.03712683171033859, 0.08713015913963318, 0.06602606177330017, 0.0590091310441494, -0.06697417050600052, 0.023413514718413353, -0.0013678669929504395, -0.0789986401796341, -0.08398150652647018, 0.030425310134887695, 0.0755133107304573, 0.030408548191189766, 0.00754700880497694, 0.09299974888563156, 0.02409367822110653, -0.04270825907588005, 0.021779868751764297, -0.03736526891589165, 0.015790462493896484, 0.03161686658859253, 0.10550718754529953, -0.06488500535488129, 0.06859531253576279, -0.03858684375882149, 0.03899434953927994, -0.06595341861248016, -0.0003805117739830166, 0.06790431588888168, 0.029711248353123665, 0.029188916087150574, 0.03979584574699402, 0.098351389169693, 0.07776563614606857, 0.012801192700862885, -0.10476693511009216, 0.047152090817689896, -0.05674373731017113, 0.08955410867929459, -0.08468126505613327, 0.020775074139237404, -0.047613490372896194, 0.030353859066963196, -0.08530714362859726, -0.08199089020490646, -0.06939040124416351, -0.029963457956910133, -0.10589136183261871, -0.08310580998659134, 0.04056448116898537, -0.08172952383756638, 0.1182674914598465, -0.03556041792035103, -0.06555968523025513, -0.07694894075393677, -0.10469453781843185, -0.024844706058502197, 0.08011239767074585, -0.04709482565522194, 0.021466130390763283, -0.045312393456697464, 0.02691345103085041, -0.002434405265375972, -0.07958468794822693, -0.0011786594986915588, -0.04612251743674278, 0.05398069694638252, 0.12087610363960266, -0.0991244912147522, -0.07465648651123047, -0.030372535809874535, 0.0330687016248703, -0.002946392400190234, -0.1379704773426056, 0.08782622218132019, -0.08487342298030853, 0.05065293610095978, 0.020592283457517624, 0.03250006586313248, 0.06481350213289261, -0.06206941232085228, 0.029820578172802925, -0.06648267060518265, 0.1044045239686966, -0.04849879816174507, -0.06324274837970734, 0.06984465569257736, -0.008178461343050003, -0.01606617122888565, -0.05137793719768524, 0.06391358375549316, 0.03233702853322029, 0.07900913059711456, 0.04867203161120415, 0.0016693603247404099], [-0.03915902227163315, 0.06215228512883186, -0.026338696479797363, 0.055919043719768524, -0.03104083612561226, 0.08444937318563461, -0.02523491345345974, 0.013309831731021404, 0.018547141924500465, -0.18376661837100983, -0.047103989869356155, -0.04223604127764702, -0.0611393041908741, 0.15474030375480652, -0.0240072812885046, 0.08795627951622009, 0.03906390443444252, -0.10854554176330566, -0.03657529503107071, -0.08909960836172104, -0.04331563785672188, 0.044438041746616364, -0.07364901155233383, 0.14043574035167694, -0.08566409349441528, 0.10371527820825577, -0.07858600467443466, -0.0012413151562213898, 0.052940838038921356, -0.05454377084970474, 0.06908208131790161, 0.05848654359579086, 0.05632878839969635, -0.03963911533355713, -0.10556952655315399, 0.08918637037277222, -0.04636329039931297, 0.07403577119112015, 0.04879854619503021, 0.09875606745481491, -0.014947928488254547, 0.05151072517037392, 0.07257163524627686, -0.09338559955358505, 0.0413467176258564, 0.009470832534134388, -0.0757579579949379, 0.08177345246076584, 0.07433266937732697, -0.08666905760765076, 0.046462588012218475, -0.012679897248744965, 0.020247139036655426, -0.034849684685468674, 0.10361120104789734, 0.01482872013002634, 0.05038730055093765, -0.04311408847570419, 0.019004566594958305, 0.056798528879880905, -0.03447898477315903, 0.04070192947983742, -0.06914594769477844, -0.019385693594813347, 0.020247694104909897, 0.1410793960094452, 0.0821598470211029, -0.02930818684399128, 0.032946258783340454, 0.08473213762044907, -0.030791059136390686, -0.025160247460007668, 0.023059701547026634, -0.08721717447042465, -0.024637509137392044, -0.08722815662622452, 0.03635679930448532, -0.022877324372529984, 0.05092020332813263, -0.010107588022947311, 0.03408356010913849, -0.04245366156101227, -0.05649177357554436, 0.029875369742512703, 0.09308646619319916, -0.025511359795928, 0.017395783215761185, 0.03287158161401749, 0.08037069439888, -0.015046395361423492, 0.09682762622833252, 0.016543924808502197, 0.031086863949894905, -0.04146555811166763, -0.07010143995285034, -0.009246788918972015, -0.03362303227186203, -0.02316892147064209, -0.01381681114435196, -0.07718794047832489, 0.09787218272686005, 0.041175857186317444, 0.05008444935083389, -0.028185749426484108, -0.0950523391366005, -0.039756882935762405, -0.14033983647823334, -0.11201738566160202, 0.08100233227014542, 0.04347359761595726, 0.024771928787231445, 0.051887620240449905, 0.03864318132400513, -0.06179015338420868, -0.08327342569828033, -0.06632106006145477, 0.11177676171064377, -0.046431686729192734, -0.02577250823378563, -0.002439911011606455, -0.01531817764043808, -0.014815926551818848, -0.035889409482479095, 0.045028191059827805, -0.038795068860054016, -0.07864369451999664, 0.07361654192209244, 0.026187337934970856]]
[[0.0, 0.01432334166020155, 0.0, -0.030766965821385384, 0.0, 0.054925061762332916, 0.0, 0.06899796426296234, -0.02697264775633812, -0.024572918191552162, 0.0, 0.0, -0.04343791306018829, 0.15675769746303558, 0.020379889756441116, -0.025172928348183632, -0.023779509589076042, 0.05460813641548157, 0.0, -0.016789261251688004, 0.0, 0.041731517761945724, -0.04322926700115204, 0.10690182447433472, 0.036422278732061386, 0.08936057239770889, -0.04372463747859001, 0.0, 0.15379756689071655, -0.03761395439505577, 0.04549495130777359, 0.05084281787276268, -0.030345208942890167, 0.0, 0.058067575097084045, 0.011284028179943562, -0.021344708278775215, 0.052587319165468216, 0.03561338037252426, 0.01311421487480402, 0.0, 0.0541703887283802, 0.03300086408853531, 0.05244581028819084, -0.025538239628076553, -0.02012350782752037, 0.06368286162614822, 0.09869816154241562, -0.00012373346544336528, -0.04510783776640892, 0.004500512033700943, 0.0, -0.04523297771811485, 0.0055451407097280025, 0.05484175309538841, 0.03884673863649368, 0.11901134252548218, -0.0509500615298748, -0.008711270056664944, 0.09745979309082031, -0.002937155542895198, 0.06426587700843811, 0.039101578295230865, 0.035219259560108185, 0.1269538551568985, 0.11608494073152542, 0.014286107383668423, -0.040434546768665314, 0.0646972730755806, -0.027128584682941437, -0.04857097193598747, 0.021832076832652092, 0.05098281800746918, 0.06299427151679993, 0.0, 0.048534803092479706, 0.045741647481918335, -0.07356343418359756, 0.038692086935043335, 0.0, 0.05778283625841141, -0.036246106028556824, 0.04774181917309761, 0.05482397973537445, 0.16006989777088165, 0.0, 0.03658900409936905, 0.03497176244854927, 0.05150919035077095, 0.0, 0.08274205029010773, -0.033964917063713074, 0.03199288994073868, 0.0211867056787014, 0.04067862778902054, -0.003963479306548834, -0.040921829640865326, 0.0, 0.0, 0.017787428572773933, 0.11390522122383118, 0.05028170347213745, 0.019411668181419373, 0.0, 0.05939358472824097, -0.003520038677379489, -0.030591541901230812, 0.06273375451564789, 0.025252768769860268, 0.11261879652738571, -0.03901820257306099, -0.03624187782406807, -0.03910122811794281, -0.019197529181838036, 0.052960947155952454, -0.02118767984211445, 0.1001901850104332, 0.0, 0.011758913286030293, 0.0007257366087287664, 0.0, 0.0, -0.05562746897339821, 0.045910730957984924, -0.015921851620078087, 0.031704794615507126, 0.029849423095583916, -0.037450697273015976]]
[[0.0020667314529418945, -8.454173803329468e-05, 0.04234567657113075, 0.04852945730090141, -0.034020472317934036, 0.020872417837381363, 0.0004858747124671936, -0.03830922767519951, 0.022067520767450333, 0.03914480283856392, 0.010418485850095749, -0.032546937465667725, 0.017480339854955673, 0.04671255126595497, -0.007895074784755707, 0.025400493294000626, 0.010256074368953705, 0.0017526037991046906, 0.01619020476937294, 0.002966940402984619, 0.0006399042904376984, 0.03224341943860054, 0.045318905264139175, -0.0002875328063964844, -0.019805658608675003, 0.017298903316259384, -0.01233457401394844, -0.016392052173614502, 0.013497497886419296, -0.024305200204253197, -0.007268011569976807, 0.01413259282708168, -0.012519240379333496, -0.039886392652988434, 0.035824861377477646, 0.0143386609852314, -0.03755124658346176, -0.03294944763183594, 0.03967205062508583, 0.0009236112236976624, -0.03037097491323948, 0.024452779442071915, 0.0476502887904644, -0.028726983815431595, 0.01475575938820839, 0.03186025843024254, -0.03398706763982773, 0.006289791315793991, 0.006825089454650879, -0.04583084583282471, -0.035805247724056244, 0.00039191171526908875, -0.04087855666875839, 0.03601083531975746, 0.0002473480999469757, -0.004822969436645508, -0.016260754317045212, -0.03174327686429024, 0.005901016294956207, 0.040680792182683945, -0.02297459915280342, 0.02661687508225441, -0.024496305733919144, 0.008186876773834229, 0.01811366155743599, -0.04876391962170601, 0.019239965826272964, 0.046023283153772354, 0.03232060745358467, 0.02485020086169243, -0.01025097444653511, 0.034637678414583206, 0.04636373743414879, -0.028216350823640823, 0.008396614342927933, 0.01724546030163765, 0.04118570312857628, 0.04776633158326149, -0.032849110662937164, -0.03429962694644928, -0.02113279141485691, 0.004850983619689941, -0.040282249450683594, -0.002651430666446686, 0.009574245661497116, 0.0007952675223350525, 0.0029978640377521515, -0.00686795637011528, -0.011153243482112885, 0.04459508880972862, -0.0461079366505146, -0.049062635749578476, 0.03507068380713463, -0.025925088673830032, 0.0006866231560707092, 0.03260400518774986, -0.020740224048495293, 0.005359314382076263, -0.0391811840236187, -0.014564596116542816, -0.006758879870176315, 0.018044259399175644, 0.00846104696393013, -0.01852848380804062, -0.040291570127010345, 0.008535515516996384, -0.006615746766328812, 0.008511602878570557, -0.030866695567965508, 0.04203072562813759, 0.0041677579283714294, 0.035529974848032, -0.004930485039949417, -0.01056576892733574, 0.048155996948480606, 0.01793423667550087, -0.030672742053866386, 0.04489356651902199, 0.018866945058107376, -0.04991399124264717, 0.034554172307252884, 0.04580109193921089, -0.017991196364164352, 0.04487128183245659, 0.04029499366879463, -0.02024872414767742, -0.01786661148071289, -0.022878050804138184], [0.04062487557530403, 0.05481594055891037, -0.007634682580828667, 0.005475649610161781, -0.011945955455303192, 0.05561515688896179, -0.055331334471702576, 0.05111364647746086, -0.04768921807408333, 0.005051677580922842, 0.033420272171497345, 0.048534370958805084, -0.01866867020726204, 0.06039654463529587, -0.04342392832040787, -0.014385600574314594, -0.06976938247680664, 0.03016180917620659, -0.07610072195529938, -0.0055298167280852795, 0.05575704202055931, -0.10270041227340698, -0.03652083873748779, -0.0011039158562198281, 0.020370936021208763, -0.040856145322322845, -0.015641776844859123, -0.021327562630176544, 0.018768062815070152, -0.015623580664396286, -0.00040616418118588626, -0.026105614379048347, -0.011905394494533539, 0.06443572044372559, 0.04182283207774162, 0.016413256525993347, 0.0005250333924777806, -0.014762088656425476, 0.04335501790046692, 0.06176294386386871, -0.009448908269405365, 0.05982137471437454, -0.04340490326285362, 0.04509545862674713, -0.024947291240096092, -0.02402508817613125, 0.06429695338010788, 0.04478858411312103, 0.0008956124656833708, -0.026281999424099922, -0.018814140930771828, -0.01547141931951046, 0.038447048515081406, -0.04413864389061928, -0.007642490789294243, -0.04829647019505501, -0.0693250223994255, -0.023219216614961624, 0.0441230833530426, 0.04070654511451721, 0.018743518739938736, 0.023029962554574013, -0.00960022583603859, 0.007368349004536867, -0.01859823428094387, -0.010484482161700726, 0.050235316157341, 0.07226471602916718, 0.0371335968375206, 0.06922567635774612, 0.04320789501070976, -0.04679228365421295, 0.02845427393913269, -0.04992156848311424, -0.028332054615020752, -0.0454389825463295, 0.006361918058246374, 0.002805212279781699, -0.07742543518543243, 0.05462302640080452, 0.0573483444750309, 0.021123478189110756, 0.03688010573387146, -0.003998358268290758, -0.01236757542937994, -0.005890668369829655, 0.03613732010126114, -0.07736007869243622, 0.03862098976969719, 0.04891492798924446, 0.012283729389309883, 0.026618024334311485, 0.044288985431194305, 0.009726219810545444, -0.0015509315999224782, 0.06763779371976852, -0.013642782345414162, 0.019072646275162697, 0.04140092432498932, 0.01778481714427471, -0.05024800822138786, -0.030913827940821648, 0.020826110616326332, 0.0019546253606677055, -0.02372526004910469, -0.07126593589782715, 0.01531653106212616, -0.0035246529150754213, -0.02930271625518799, 0.04882678762078285, 0.02436373569071293, -0.10135381668806076, 0.017281722277402878, -0.002848562551662326, 0.012258007191121578, 0.04746703431010246, -0.05243121460080147, 0.01963559351861477, -0.04411522299051285, 0.018735572695732117, -0.013585138134658337, 0.014293407090008259, -0.008383733220398426, -0.022957151755690575, -0.015470822341740131, -0.08642878383398056, 0.024622946977615356, 0.012868223711848259], [-0.018879150971770287, -0.012052975594997406, 0.011591054499149323, -0.04496420547366142, -0.022378146648406982, 0.022796880453824997, -0.008966159075498581, -0.04874377325177193, -0.024796022102236748, 0.037035439163446426, -0.03911135345697403, -0.01622619479894638, -0.04843968152999878, -0.009666729718446732, -0.026622343808412552, -0.0019299164414405823, 0.036128345876932144, 0.02789464220404625, -0.007449030876159668, -0.03301757574081421, -0.01245129108428955, -0.008530210703611374, -0.039635706692934036, -0.005541156977415085, -0.02080329693853855, 0.048760298639535904, 0.018834736198186874, -0.03445357084274292, -0.023363400250673294, 0.008295763283967972, 0.0008390657603740692, -0.049956001341342926, 0.019091930240392685, -0.006081949919462204, -0.039826083928346634, 0.04869438335299492, -0.04199087619781494, 0.03274263069033623, 0.038022566586732864, -0.037110187113285065, 0.014082524925470352, 0.017912279814481735, 0.04599667713046074, -0.006631672382354736, -0.037099432200193405, 0.02957281842827797, 0.029681038111448288, 0.03958268091082573, -0.04487008973956108, 0.009987879544496536, -0.019930852577090263, 0.021786455065011978, 0.018693339079618454, -0.0024150125682353973, -0.0137191042304039, -0.0015702955424785614, -0.038989972323179245, -0.012660443782806396, 0.018728364259004593, -0.02019590139389038, -0.04903596639633179, -0.04214959219098091, 0.004556022584438324, -0.04359098896384239, -0.009414754807949066, -0.019430721178650856, 0.007190205156803131, -0.02735818736255169, 0.020138192921876907, -0.010525979101657867, -0.048552729189395905, 0.04470362886786461, -0.022290218621492386, 0.019102681428194046, -0.03491293266415596, 0.029782060533761978, 0.0031440742313861847, 0.030176546424627304, 0.0012433156371116638, -0.02969946898519993, -0.001959480345249176, -0.014321457594633102, 0.024587247520685196, 0.035260628908872604, -0.02518618106842041, -0.01541978120803833, 0.049230460077524185, -0.006478607654571533, 0.04183952882885933, 0.032115910202264786, -0.028691960498690605, -0.022299110889434814, -0.00020378828048706055, 0.018634308129549026, -0.013140331953763962, -0.013281106948852539, 0.02686980739235878, 0.023428644984960556, 0.014741633087396622, 0.005414508283138275, 0.03214229270815849, -0.026656854897737503, 0.04675077274441719, 0.011191118508577347, -0.049485910683870316, -0.0027400851249694824, 0.004993319511413574, -0.036668241024017334, 0.0013115517795085907, 0.006251346319913864, -0.0010746009647846222, 0.002723909914493561, -0.004694093018770218, -0.04174923896789551, -0.019249439239501953, -0.04193822294473648, -0.005091167986392975, 0.028731200844049454, -0.03470631688833237, 0.04407969489693642, -0.04256419092416763, -0.003048766404390335, -0.03446849435567856, 0.04875396564602852, -0.03976241499185562, 0.010274935513734818, -0.04681748151779175, 0.031064454466104507], [-0.006176671013236046, 0.0793607160449028, 0.03861532360315323, -0.04125579074025154, -0.04954792559146881, 0.03212329372763634, -0.038099657744169235, 0.017460715025663376, -0.042321816086769104, 0.02608645148575306, -0.001928707235492766, -0.06277745217084885, -0.031623635441064835, 0.03849918395280838, 0.036078039556741714, -0.038797777146101, -0.020072871819138527, -0.03156238794326782, 0.048409733921289444, 0.02515459433197975, 0.025215864181518555, 0.014980638399720192, -0.04719089716672897, -0.00016950925055425614, -0.0095369853079319, 0.008642826229333878, 0.06607620418071747, -0.02508365549147129, -0.03472214564681053, -0.021013453602790833, -0.03094320185482502, -0.003205274697393179, -0.01295166090130806, 0.03141198679804802, 0.048974163830280304, -0.032865844666957855, 0.03491150215268135, 0.04451771825551987, 0.03249089792370796, -0.007665032986551523, -0.04796586185693741, 0.0021122670732438564, -0.04931262508034706, -0.014600230380892754, 0.04735470563173294, -0.006850856356322765, 0.07631395012140274, -0.014940768480300903, 0.03932392969727516, -0.027170365676283836, -0.0033425248693674803, -0.0560479499399662, -0.009827733039855957, 0.020552020519971848, -0.058709122240543365, -0.027667813003063202, 0.021966412663459778, -0.041437167674303055, 0.054705072194337845, 0.031251657754182816, -0.01882898434996605, 0.0358196459710598, 0.05819277465343475, 0.018381893634796143, -0.03467129170894623, 0.02059163711965084, -0.023424293845891953, 0.014203768223524094, -0.03028428927063942, -0.028530307114124298, -0.0337759293615818, 0.03816995397210121, -0.03923004865646362, -0.04445411264896393, -0.04473486170172691, -0.02006567269563675, 0.03709850832819939, -0.0178314708173275, -0.008382845669984818, 0.004732171073555946, 0.004472652915865183, -0.0602516308426857, 0.016492579132318497, -0.006437989883124828, 0.0026567198801785707, 0.0013717940310016274, 0.015929581597447395, 0.01677963323891163, 0.04844406247138977, -0.04560627415776253, 0.01816493272781372, 0.02709287218749523, -0.038072433322668076, 0.05570351704955101, 0.053915489464998245, 0.0061904191970825195, 0.04623521491885185, 0.050618257373571396, -0.04486760124564171, 0.0015775117790326476, -0.06384237110614777, -0.03228640928864479, 0.01830444484949112, -0.020874276757240295, -0.04181356355547905, -0.0019468701211735606, 0.048096075654029846, 0.06493647396564484, -0.018889879807829857, 0.06431898474693298, 0.014682491309940815, -0.0006780921248719096, -0.010245147161185741, -0.012208388186991215, 0.008131790906190872, 0.030320115387439728, 0.03802486136555672, -0.031142743304371834, -0.04770557954907417, 0.032582562416791916, 0.04424287751317024, -0.03142690658569336, -0.0017277729930356145, 0.022173738107085228, -0.0003622579388320446, -0.0025433222763240337, -0.04717892408370972, -0.021938970312476158], [0.04609621688723564, -0.040355611592531204, -0.007140159606933594, 0.0422138087451458, 0.007182825356721878, 0.009073056280612946, -0.030381416901946068, -0.0025314688682556152, 0.021461401134729385, 0.02471141889691353, -0.0046975016593933105, 0.004725564271211624, 0.02718299999833107, 0.01065974310040474, 0.007199954241514206, 0.0020785555243492126, -0.02568603865802288, 0.03951862081885338, -0.00044252723455429077, 0.017456520348787308, -0.01820148155093193, 0.00890122726559639, 0.04290380701422691, -0.04120347648859024, 0.0342039130628109, 0.01831268146634102, 0.02306649461388588, 0.02072359248995781, 0.032653067260980606, -0.015273593366146088, 0.04229476675391197, 0.043170761317014694, -0.04016021639108658, 0.03570190444588661, -0.004246748983860016, -0.04215729236602783, -0.0058397650718688965, 0.04471064731478691, -0.02956296317279339, -0.02729806862771511, 0.012418758124113083, -0.007170438766479492, 0.009749017655849457, -0.04502373933792114, -0.03781075403094292, 0.012051500380039215, -0.022191917523741722, 0.016191910952329636, -0.04360504075884819, -0.008177362382411957, -0.019392037764191628, -0.005562473088502884, 0.014681432396173477, 0.018346574157476425, -0.03483232110738754, 0.04881987348198891, 0.02186298742890358, -0.0030327066779136658, 0.00778130441904068, -0.022576069459319115, 0.005966842174530029, 0.04900801554322243, 0.002943743020296097, 0.04846781864762306, -0.01693151146173477, 0.027260851114988327, 0.032060716301202774, -0.035405516624450684, -0.020636511966586113, 0.042887914925813675, 0.02090756967663765, -0.048291850835084915, -0.000492393970489502, -0.011432409286499023, -0.023654986172914505, -0.03273944929242134, -0.022921908646821976, 0.03248784318566322, -0.025828136131167412, -0.04685027524828911, -0.0007350072264671326, -0.008081961423158646, -7.788091897964478e-05, -0.032828439027071, -0.0414714440703392, -0.025362182408571243, -0.048978377133607864, -0.025845898315310478, 0.010196138173341751, -0.03704577684402466, -0.024566804990172386, 0.0009512417018413544, -0.01118462160229683, -0.014535628259181976, -0.04028288275003433, -0.023936212062835693, -0.04319427162408829, -0.03454563766717911, -0.0014341473579406738, 0.031281258910894394, 0.04164356365799904, 0.008231006562709808, 0.017218757420778275, 0.04054654762148857, 0.029194463044404984, 0.002170287072658539, -0.009149491786956787, 0.013206984847784042, 0.035829197615385056, -0.00985647365450859, 0.025964591652154922, 0.029898110777139664, 0.02157982811331749, 0.046353649348020554, 0.04737072065472603, 0.0015584230422973633, -0.011695660650730133, -0.008983112871646881, 0.011464308947324753, -0.049263905733823776, 0.012490153312683105, 0.02889559045433998, -0.0033932700753211975, -0.01856996864080429, -0.04015003517270088, -0.02352745644748211, 0.03795517608523369, -0.002342522144317627], [-0.05944554880261421, 0.07440626621246338, 0.09626633673906326, 0.005926046054810286, -0.028774481266736984, 0.07569333910942078, -0.10747619718313217, 0.03164462745189667, -0.10519421100616455, 0.03411002829670906, -0.019751865416765213, -0.036608703434467316, -0.03411189839243889, -0.008128779008984566, -0.0003684386610984802, -0.021498121321201324, 0.057396601885557175, -0.029957560822367668, 0.010389563627541065, -0.04714382812380791, -0.1024642139673233, 0.05826900899410248, 0.02537599764764309, -0.00030173006234690547, 0.015577116049826145, 0.05723056569695473, 0.011919447220861912, -0.016898993402719498, 0.05102807655930519, 0.0415339320898056, 0.06475525349378586, -0.09680075198411942, 0.03918187692761421, 0.04071194678544998, -0.11683589220046997, 0.003800914855673909, -0.001781783881597221, -0.036683935672044754, -0.04931723698973656, 0.03222637251019478, -0.0165056474506855, 0.051227401942014694, -0.037066470831632614, 0.07157181948423386, -0.049971237778663635, 0.022892719134688377, -0.012639234773814678, 0.022566551342606544, 0.09449160844087601, -0.06775153428316116, -0.09133239835500717, -0.01524568721652031, -0.026986969634890556, 0.06990466266870499, 0.007121668662875891, -0.0343470461666584, -0.0007223285501822829, -0.01956106908619404, -0.01015059556812048, 0.09882044047117233, 0.05161779001355171, -0.03592170402407646, -0.04523105174303055, 0.07780449092388153, 0.016579685732722282, -0.012803779914975166, 0.008151989430189133, 0.05068250000476837, -0.031221620738506317, 0.10651792585849762, 0.044012926518917084, 0.03171797841787338, 0.03272496536374092, -0.022412460297346115, 0.04275119677186012, 0.04610307142138481, 0.05262321978807449, 0.05847751349210739, 0.0023326356895267963, 0.08736670762300491, -0.04323568940162659, 0.08247910439968109, 0.06606552749872208, 0.04403892904520035, 0.004794093780219555, -0.024447999894618988, 0.015743756666779518, 0.049205221235752106, 0.0399724580347538, -0.08890965580940247, 0.002338085090741515, -0.029910283163189888, -0.012273728847503662, 0.012033851817250252, 0.04168643057346344, -0.023987192660570145, 0.013597119599580765, -0.06995826214551926, -0.027499374002218246, -0.0003054317203350365, 0.047922249883413315, 0.04823168367147446, 0.06414827704429626, 0.09520448744297028, -0.01618041843175888, 0.0410611554980278, 0.07333791255950928, -0.04614916443824768, -0.03830013424158096, 0.06653018295764923, 0.004516188055276871, 0.009933460503816605, -0.03088822402060032, 0.012837511487305164, -0.027921047061681747, -0.08373051881790161, -0.04099758714437485, 0.059701185673475266, -0.030686188489198685, -0.04714556783437729, 0.037877947092056274, 0.004126499406993389, 0.04692646488547325, 0.1304553896188736, 0.08952011168003082, -0.0033424869179725647, -0.06061983108520508, 0.005508259404450655], [0.01134718582034111, 0.014120686799287796, 0.0020147673785686493, 0.0159141905605793, 0.033142056316137314, 0.02741929516196251, 0.03635898604989052, 0.027942132204771042, -0.006903696805238724, -0.045640598982572556, -0.04243893548846245, -0.005174946039915085, 0.0026185736060142517, -0.01316235214471817, -0.0029660463333129883, 0.010743808001279831, 0.01204826682806015, 0.0037444941699504852, -0.019354594871401787, -0.002358637750148773, 0.03660387918353081, 0.03980448469519615, 0.03655990585684776, -0.0007323510944843292, -0.0069999098777771, -0.004413723945617676, 0.015448752790689468, -0.04337608814239502, 0.00895402580499649, 0.04927189275622368, 0.04608673229813576, -0.01972273550927639, -0.037730731070041656, -0.009081423282623291, 0.025825824588537216, 0.009240128099918365, 0.009213902056217194, -0.04657027870416641, 0.017532560974359512, -0.02416222169995308, 0.005027402192354202, 0.010550059378147125, -0.04078347608447075, 0.03301992639899254, 0.0016664974391460419, 0.03079185262322426, 0.01256624236702919, 0.03183874860405922, 0.002394832670688629, 0.01646548882126808, -0.0015915632247924805, 0.013659153133630753, -0.017609644681215286, 0.016744818538427353, 0.023591194301843643, -0.02954740636050701, 0.018644224852323532, 0.00894080474972725, -0.034561287611722946, -0.03376992046833038, 0.01724282279610634, 0.02807900682091713, -0.039111219346523285, 0.025601159781217575, 0.0019473209977149963, -0.042843639850616455, -0.043301381170749664, -0.04696622118353844, 0.03803363814949989, 0.012958232313394547, -0.014930464327335358, 0.01282794401049614, 0.03903685882687569, -0.04478318616747856, 0.009138692170381546, 0.011574387550354004, 0.011244010180234909, 0.03917059674859047, -0.015866003930568695, 0.007406555116176605, -0.020996486768126488, 0.02501549944281578, -0.02793898619711399, -0.01837325096130371, -0.02340148761868477, 0.04610462114214897, 0.03883076831698418, -0.03421226888895035, 0.02178839221596718, 0.03004181757569313, -0.04950859770178795, -0.03733963891863823, -0.02130643092095852, -0.01633765548467636, -0.027986539527773857, -0.01944955624639988, -0.011493552476167679, 0.025594200938940048, 0.04571039602160454, -0.037824202328920364, -0.04317000135779381, 0.04994286224246025, -0.010920286178588867, 0.030076775699853897, -0.049383629113435745, -0.004586517810821533, -0.046031463891267776, 0.030043575912714005, 0.016248051077127457, -0.0020527243614196777, -0.006464660167694092, -0.01871340349316597, 0.004479348659515381, 0.0006835237145423889, 0.024640802294015884, -0.0482708215713501, 0.010294388979673386, 0.02972327545285225, 0.04614713415503502, -0.03940466791391373, 0.03837250545620918, -0.04236626625061035, -0.019429540261626244, -0.009982787072658539, -0.029855668544769287, 0.013234201818704605, 0.007120370864868164, -0.048422958701848984], [-0.05253874137997627, -0.038796961307525635, -0.0030420366674661636, -0.0549275204539299, 0.03681175783276558, -0.08729567378759384, -0.06257408857345581, 0.003759981133043766, -0.028923286125063896, -0.09194335341453552, -0.035874947905540466, -0.05753804370760918, -0.013291846960783005, -0.032447874546051025, -0.008431412279605865, -0.03190324455499649, 0.12753404676914215, -0.06883176416158676, 0.12298764288425446, -0.09479821473360062, 0.01365310326218605, 0.12065012007951736, 0.1309082806110382, -0.019702091813087463, 0.02239096537232399, 0.08159559965133667, 0.04690496250987053, -0.030235186219215393, 0.10290936380624771, 0.025355041027069092, -0.12789182364940643, -0.022791549563407898, -0.04151874780654907, -0.07066244632005692, -0.041171468794345856, -0.012999152764678001, 0.002857111394405365, 0.06622542440891266, -0.04088055342435837, -0.02847474254667759, -0.015104878693819046, -0.022226054221391678, -0.011104701086878777, 0.07370810210704803, 0.00636816443875432, 0.1357167810201645, -0.039776597172021866, -0.1060597375035286, 0.10538394749164581, -0.08641764521598816, -0.033429890871047974, -0.08431628346443176, 0.002902258187532425, 0.12614162266254425, 0.020900515839457512, -0.008516144007444382, 0.10366653650999069, -0.015888512134552002, -0.0495942048728466, 0.10726191848516464, -0.11163678765296936, 0.03631110489368439, 0.01680786721408367, -0.019389206543564796, 0.06086793541908264, -0.0923975259065628, 0.05041113868355751, -0.03269417956471443, -0.07851661741733551, -0.08747120201587677, 0.03097517043352127, 0.08203926682472229, 0.04803137853741646, 0.020525464788079262, 0.007504653185606003, 0.0931699126958847, -0.04715143144130707, 0.011110307648777962, 0.07206626236438751, 0.042608391493558884, -0.04116644710302353, -0.04442818835377693, -0.053179431706666946, 0.0629456415772438, -0.12583418190479279, -0.12652933597564697, 0.0958009660243988, 0.11411592364311218, 0.03317371755838394, -0.05546947941184044, -0.06804230064153671, 0.02213880978524685, -0.028122521936893463, -0.034871142357587814, -0.05633486434817314, -0.02980934828519821, -0.07687798887491226, -0.03673344478011131, -0.04772203788161278, 0.009212754666805267, -0.02567686326801777, 0.09255780279636383, 0.001999075524508953, -0.06855148822069168, 0.012707401067018509, 0.13268855214118958, -0.005768831353634596, -0.07873103767633438, -0.018063973635435104, -0.042885009199380875, -0.09356705099344254, 0.08853708952665329, 0.033953260630369186, 0.055759038776159286, -0.057963330298662186, -0.09917869418859482, -0.03412550687789917, -0.07024410367012024, -0.023080958053469658, 0.040282633155584335, 0.08091524243354797, -0.02001333236694336, 0.1252996027469635, 0.12864159047603607, -0.03210729360580444, 0.1022431030869484, -0.032057568430900574, -0.019738798961043358], [0.060962095856666565, 0.06605440378189087, 0.050219450145959854, 0.038898445665836334, -0.004403516184538603, 0.016157373785972595, 0.03980370610952377, 0.047068629413843155, 0.02362891472876072, 0.06335770338773727, 0.05879833176732063, 0.005935638677328825, 0.039065051823854446, -0.010817398317158222, -0.0006573200225830078, 0.024151165038347244, -0.0970788523554802, -0.004266088362783194, -0.011588647030293941, 0.0012398198014125228, 0.05504652112722397, -0.026304885745048523, -0.05154889076948166, 0.018645191565155983, -0.019261615350842476, -0.09917721152305603, 0.0028901747427880764, -0.0070067886263132095, -0.012572270818054676, 0.014527250081300735, 0.013577325269579887, 0.058873165398836136, 0.033532071858644485, 0.01374492421746254, 0.08049963414669037, -0.024358877912163734, -0.039670538157224655, -0.09397348016500473, -0.0033905007876455784, 0.018073881044983864, -0.03991662338376045, 0.08389464020729065, -0.03186119347810745, 0.009233733639121056, 0.03632713854312897, -0.02193162962794304, 0.08915004879236221, 0.03634323179721832, -0.08260256797075272, -0.04022406041622162, 0.028049198910593987, 0.0016178751830011606, -0.04138389974832535, -0.0666651576757431, 0.004579267930239439, -0.007424446288496256, -0.008755707181990147, 0.00558453518897295, 0.08595171570777893, 0.01621878519654274, -0.04676404222846031, -0.037974338978528976, 0.0549694187939167, 0.06965078413486481, -0.001895272289402783, 0.05667755752801895, 0.02981450967490673, 0.014403034932911396, -0.026513006538152695, 0.07044672966003418, -0.030187854543328285, -0.1032375618815422, 0.020156458020210266, 0.01737292669713497, -0.00888754054903984, -0.08804608136415482, 0.007853463292121887, -0.0003156965831294656, -0.08347056806087494, 0.014487290754914284, 0.014776759780943394, -0.07565837353467941, 0.06572198122739792, -0.03603845089673996, 0.03034444898366928, -0.03795401751995087, -0.02272646687924862, -0.10244271159172058, 0.06653156876564026, 0.003133755410090089, 0.023102376610040665, 0.059538159519433975, -0.025323612615466118, -0.014500177465379238, 0.03874719515442848, 0.05542447790503502, 0.01192014291882515, -0.005924572702497244, 0.04761267453432083, 0.005892716348171234, -0.03156766667962074, -0.06834936141967773, -0.044222865253686905, 0.014952825382351875, -0.04480936750769615, -0.03655839338898659, 0.025414438918232918, 0.08140870183706284, 0.039250437170267105, 0.03731799125671387, 0.035551246255636215, -0.06578104197978973, -0.031394243240356445, -0.054781511425971985, -0.05099354311823845, -0.009108261205255985, -0.003044790355488658, 0.012250739149749279, 0.02623453363776207, 0.06759361922740936, 0.03112877532839775, -0.04285610467195511, -0.04691848158836365, -0.04150986671447754, -0.049073249101638794, -0.05866198614239693, 0.0014192108064889908, -0.04392170533537865], [0.2116001546382904, -0.23884883522987366, -0.014767567627131939, 0.08400332927703857, -0.030881749466061592, -0.23477469384670258, 0.194370836019516, -0.10983740538358688, 0.2676302194595337, -0.06897623091936111, 0.26843467354774475, 0.2038150429725647, -0.0034425086341798306, -0.11305663734674454, -0.043242182582616806, -0.012054931372404099, 0.02374384179711342, 0.3013315498828888, -0.05128353461623192, 0.10483060777187347, -0.16350914537906647, -0.027747400104999542, -0.0464073047041893, 0.030441321432590485, 0.30787208676338196, -0.0549444854259491, -0.2677527368068695, -0.021886548027396202, -0.26526424288749695, -0.020598143339157104, 0.1114560142159462, -0.1030135378241539, -0.0173632875084877, 0.08913896232843399, -0.12331844866275787, -0.0035158172249794006, -0.015940450131893158, 0.023558394983410835, 0.20920361578464508, 0.0645872950553894, -0.026839589700102806, -0.12615033984184265, -0.04419928789138794, -0.10960341989994049, 0.030281243845820427, 0.00012220442295074463, 0.22055906057357788, 0.2063051462173462, 0.021022237837314606, 0.17838828265666962, 0.21883729100227356, 0.22684329748153687, -0.026456832885742188, 0.05855920910835266, -0.022706493735313416, -0.04058155417442322, 0.028469732031226158, -0.005279339849948883, 0.12734326720237732, -0.20847675204277039, -0.014765364117920399, -0.00646367808803916, -0.11539047956466675, -0.18161387741565704, 0.018402034416794777, 0.2957993447780609, 0.02537277154624462, -0.05202650651335716, 0.05846183001995087, 0.1966499388217926, -0.0026551352348178625, 0.031177379190921783, 0.03212442621588707, 0.07702866196632385, 0.009394370019435883, -0.03393794596195221, -0.17748109996318817, -0.03799398988485336, -0.02579713612794876, -0.13322697579860687, 0.2239723801612854, -0.033724594861269, -0.11934308707714081, -0.03844287246465683, 0.17720013856887817, 0.15986239910125732, -0.21540161967277527, 0.033723946660757065, -0.23042742908000946, 0.13652685284614563, 0.10719072073698044, 0.25375035405158997, 0.11920414119958878, -0.23691874742507935, -0.2746214270591736, 0.07275166362524033, -0.1435638964176178, 0.1903531700372696, 0.01625613309442997, 0.044342588633298874, 0.04591585695743561, -0.04120001569390297, -0.04029139131307602, -0.2229709029197693, -0.025947868824005127, 0.006999768782407045, -0.16376569867134094, 0.19643987715244293, -0.03881733492016792, -0.1717963069677353, 0.14139683544635773, -0.023732280358672142, 0.024189526215195656, -0.014163859188556671, 0.024385837838053703, 0.17383328080177307, -0.0030405905563384295, 0.03638665750622749, -0.00863870233297348, -0.03893384709954262, -0.1355976015329361, 0.03728601709008217, -0.07220257073640823, -0.054923173040151596, 0.04777140915393829, -0.038926683366298676, 0.13485291600227356, 0.09588295966386795], [0.01374000683426857, -0.012233950197696686, 0.03890121355652809, 0.033015694469213486, -0.02651390992105007, 0.021253373473882675, 0.027090098708868027, 0.007136248052120209, -0.047077298164367676, -0.04966692999005318, 0.038923513144254684, -0.013624083250761032, -0.020011091604828835, -0.04242138937115669, 0.02709159627556801, 0.015569780021905899, 0.0012685656547546387, -0.01815037801861763, -0.04127216339111328, 0.0005335099995136261, 0.018302392214536667, -0.04197627305984497, -0.044618915766477585, 0.016623999923467636, -0.04108237102627754, -0.03750445693731308, 0.026393864303827286, 0.0113174207508564, -0.0157989040017128, 0.010938465595245361, 0.018903028219938278, 0.020699549466371536, -0.04261413961648941, 0.04572209343314171, 0.00950096920132637, -0.033234380185604095, -0.011476647108793259, -0.030882811173796654, -0.02436657063663006, -0.000754036009311676, 0.016433406621217728, -0.04311267286539078, 0.031635548919439316, 0.0363214872777462, 0.04672377184033394, 0.01046835258603096, 0.024209145456552505, 1.6652047634124756e-05, 0.0062695033848285675, -0.01738368347287178, -0.03435691446065903, 0.015439901500940323, -0.0148499496281147, 0.024117980152368546, 0.02837688848376274, 0.049338724464178085, 0.0341421477496624, 0.03484261408448219, 0.04069674387574196, -0.01820983737707138, -0.0020309574902057648, 0.033089566975831985, 0.025350425392389297, -0.013679705560207367, 0.04489726200699806, 0.025341320782899857, -0.00834503024816513, -0.0481196753680706, 0.04393548145890236, -0.019276930019259453, -0.010365568101406097, 0.011927522718906403, -0.020244790241122246, 0.005500495433807373, -0.01508336141705513, 0.03742643818259239, 0.03178919479250908, -0.032345354557037354, -0.00912487506866455, 0.04005059227347374, 0.006400011479854584, 0.042494501918554306, 0.03305454179644585, 0.018632832914590836, -0.04265696927905083, 0.03979947790503502, 0.011131871491670609, -0.03225838020443916, 0.015109430998563766, -0.027948571369051933, 0.02999398484826088, -0.034570932388305664, 0.0020184889435768127, 0.005762957036495209, -0.03864983469247818, 0.020657185465097427, -0.010435342788696289, -0.015730619430541992, -0.012558113783597946, 0.045935120433568954, 0.014173183590173721, 0.022541169077157974, 0.04629402235150337, -0.045101236552000046, 0.03000601753592491, -0.019439328461885452, 0.011762868613004684, -0.02767038345336914, 0.03626001998782158, 0.008488845080137253, -0.0489560142159462, 0.019163694232702255, -0.019983936101198196, 0.04775473102927208, 0.007582593709230423, -0.01584829017519951, 0.008914720267057419, -0.04229860380291939, 0.044576141983270645, -0.03902881219983101, 0.0038234591484069824, -0.04316315799951553, 0.0315922386944294, -0.024152016267180443, -0.00024950504302978516, 0.0005457289516925812, -0.03349435329437256, -0.022741390392184258], [-0.002215363085269928, 0.003090880811214447, 0.027456078678369522, -0.01228111982345581, 0.0027657970786094666, 0.04579569026827812, -0.03821539878845215, -0.005680419504642487, 0.023576389998197556, 0.04989231750369072, -0.01635824516415596, 0.016655493527650833, 0.04950729385018349, 0.04429915174841881, -0.023990441113710403, -0.01519547775387764, -0.013283014297485352, -0.031440675258636475, -0.048273492604494095, 0.012416303157806396, 0.006807290017604828, -0.04949300363659859, -0.011739753186702728, -0.03490213304758072, -0.01708674430847168, 0.007871974259614944, 0.04858103767037392, -0.0168943889439106, -0.012630332261323929, 0.047004591673612595, -0.023298442363739014, -0.046624720096588135, -0.03219187259674072, -0.0329255610704422, 0.001270841807126999, -0.009593211114406586, 0.02145836129784584, -0.01988833025097847, -0.005669821053743362, -0.03102417103946209, 0.04824378713965416, -0.0003826133906841278, 0.03834637627005577, -0.022216035053133965, 0.008005224168300629, -0.00933462381362915, -0.00415806844830513, 0.02521214261651039, -0.023113226518034935, 0.008138932287693024, 0.04944309964776039, -0.030895186588168144, 0.021836284548044205, -0.015522133558988571, -0.01438070461153984, -0.01061227172613144, -0.031101906672120094, -0.024475956335663795, -0.042910363525152206, 0.013220909982919693, 0.014699388295412064, 0.0009799487888813019, 0.001626037061214447, 0.019816402345895767, -0.042530037462711334, -0.035533346235752106, -0.03365971893072128, 0.004105128347873688, 0.04475635662674904, -0.04220486804842949, 0.0009907707571983337, -0.04074136167764664, 0.01168755441904068, -0.001835465431213379, -0.022592008113861084, 0.029610048979520798, 0.01972455158829689, -0.022480523213744164, 0.0049277059733867645, 0.04063424840569496, 0.03164033964276314, -0.009803008288145065, 0.00954056903719902, 0.014469865709543228, -0.04810158163309097, -0.049019813537597656, -0.0077623724937438965, 0.046111274510622025, 0.03844628110527992, 0.016320113092660904, -0.006258867681026459, 0.033472348004579544, -0.029395533725619316, -0.014415573328733444, 0.008367978036403656, -0.03406655788421631, 0.04317765310406685, -0.006605077534914017, 0.03582010045647621, 0.028037179261446, -0.03248494863510132, 0.023438643664121628, 0.02476581558585167, 0.03848353400826454, -0.04710596799850464, -0.01590120792388916, -0.02006557025015354, -0.01285398006439209, -0.011125992983579636, -0.04767841100692749, 0.009297799319028854, -0.047127630561590195, 0.011553369462490082, 0.011307049542665482, 0.03640400245785713, -0.0369369275867939, -0.028452193364501, -0.016218174248933792, -0.0389789454638958, -0.0441114567220211, 0.026632796972990036, -0.0202497486025095, -0.046473752707242966, -0.004677046090364456, 0.019679080694913864, -0.01016310602426529, -0.037676405161619186, 0.01568007841706276], [-0.012801632285118103, 0.0950980857014656, 0.05003776401281357, -0.02004033327102661, -0.008355851285159588, 0.10175009816884995, -0.08995065093040466, 0.050643935799598694, -0.07617619633674622, 0.075140081346035, -0.009461188688874245, -0.08449073880910873, 0.012189196422696114, 0.019445279613137245, 0.049481358379125595, -0.01371772587299347, -0.011457065120339394, 0.023635514080524445, -0.08233647048473358, -0.03963056206703186, 0.042490243911743164, -0.039924491196870804, -0.10215600579977036, -0.07086300104856491, 0.07020837068557739, -0.035961225628852844, 0.013926864601671696, -0.00378242670558393, 0.023400520905852318, 0.017067398875951767, -0.0730801671743393, 0.12275781482458115, 0.017671596258878708, 0.10937261581420898, 0.09386388212442398, -0.04015370458364487, -0.045896437019109726, -0.07156156748533249, -0.05742545798420906, -0.04596391320228577, 0.023307863622903824, 0.10663016140460968, 0.020007584244012833, 0.027098391205072403, 0.07443111389875412, -0.0008776303147897124, 0.14208589494228363, 0.0013580945087596774, -0.050897467881441116, -0.025872686877846718, 0.027976756915450096, -0.03920167684555054, 0.004809260368347168, -0.010012021288275719, -0.08905068039894104, 0.026087623089551926, -0.0100886644795537, -0.018221719190478325, 0.0232121329754591, -0.017110595479607582, 0.013139879330992699, 0.020906098186969757, 0.07625167071819305, 0.11237291991710663, -0.06720565259456635, -0.0013499214546754956, -0.10837153345346451, 0.09866379201412201, -0.06043205410242081, 0.022360244765877724, -0.047594036906957626, -0.016981275752186775, 0.008096481673419476, -0.08425028622150421, -0.028379440307617188, -0.08073009550571442, 0.08803233504295349, 0.09805705398321152, -0.054004643112421036, -0.12010815739631653, 0.00989379733800888, -0.0036666765809059143, 0.10791408270597458, 0.016716832295060158, -0.07884340733289719, -0.10069955885410309, 0.08322572708129883, -0.018954936414957047, 0.10667802393436432, -0.05072851851582527, -0.07748213410377502, 0.04936598986387253, -0.10612466931343079, 0.00954157393425703, 0.0963381975889206, -0.1032232865691185, 0.09054822474718094, -0.007064756006002426, -0.010356666520237923, 0.019334878772497177, -0.024166345596313477, -0.09150969982147217, -0.010235391557216644, -0.003580075688660145, 0.012563873082399368, -0.02175617218017578, 0.09241311997175217, 0.05556022375822067, -0.016579866409301758, 0.014613077044487, -0.016229690983891487, -0.0637875571846962, -0.01851522922515869, -0.03946254402399063, -0.030930951237678528, -0.01525849662721157, 0.004830487072467804, -0.048773765563964844, -0.028148019686341286, 0.12575353682041168, 0.02408316358923912, 0.009474512189626694, -0.02619869075715542, -0.033219270408153534, -0.003683827817440033, -0.031326234340667725, -0.0802692100405693, -0.029712483286857605], [0.014239756390452385, -0.00843239389359951, 0.029069405049085617, 0.007558053825050592, -0.04433242976665497, -0.026981351897120476, -0.06638006865978241, 0.04913817346096039, -0.009820882230997086, 0.029457010328769684, -0.06150807812809944, -0.04595707356929779, -0.03543426841497421, -0.013486898504197598, -0.021366750821471214, 0.008302551694214344, -0.009692131541669369, -0.057642754167318344, 0.018394337967038155, 0.06551297754049301, 0.017867956310510635, -0.017578125, 0.10218864679336548, 0.0679401308298111, -0.21258987486362457, -0.07444429397583008, 0.04121217876672745, -0.048009663820266724, 0.06538738310337067, -0.0267486572265625, 0.20339560508728027, -0.03713572025299072, 0.031152497977018356, 0.05478595197200775, -0.008457079529762268, 0.04185820370912552, 0.0043326569721102715, -0.029604246839880943, -0.030279429629445076, 0.08443083614110947, -0.027519047260284424, 0.013356528244912624, -0.03345133736729622, 0.026204047724604607, 0.003968297503888607, -0.018041087314486504, -0.01369671244174242, 0.02137947455048561, -0.005001962650567293, 0.05153931304812431, -0.0031277528032660484, 0.008615769445896149, -0.014573562890291214, 0.07344009727239609, -0.004368194378912449, -0.02684278041124344, -0.05063536390662193, -0.0038349463138729334, -0.12679481506347656, 0.19348520040512085, 0.0485207661986351, -0.025215741246938705, -0.05107898265123367, 0.03891982138156891, 0.1098126620054245, 0.0007620950927957892, 0.027309617027640343, 0.061800915747880936, 0.05117342621088028, 0.14962758123874664, 0.048418078571558, 0.011127947829663754, 0.0019507852848619223, 0.09030407667160034, 0.015537586063146591, -0.07806089520454407, 0.032473135739564896, -0.04575745388865471, -0.05575127899646759, 0.17388902604579926, 0.051231369376182556, 0.057360969483852386, -0.0041814339347183704, 0.016200164332985878, -0.02625778503715992, -0.019924672320485115, 0.04504887014627457, -0.05853293836116791, -0.012694837525486946, -0.015421404503285885, 0.009133974090218544, -0.2197665423154831, 0.07149624079465866, 0.03751825913786888, 0.05530274286866188, 0.11830013990402222, -0.02627575397491455, 0.0043642460368573666, 0.022307779639959335, -0.03550104796886444, -0.0062761809676885605, -0.04756518453359604, 0.03965353965759277, 0.12372029572725296, -0.011854458600282669, -0.05671088397502899, -0.0106973210349679, -0.05008212849497795, -0.01383662223815918, -0.022094935178756714, 0.024971503764390945, 0.005854151211678982, -0.01982557773590088, -0.007821089588105679, 0.01668846234679222, 0.026913603767752647, 0.039342403411865234, 0.015027397312223911, 0.04403778538107872, -0.06763232499361038, 0.09075016528367996, 0.014479734003543854, 0.1769127994775772, 0.05368712544441223, 0.04239572957158089, -0.07214078307151794, 0.0422140434384346, 0.02528039924800396], [0.09728430211544037, -0.11047746986150742, -0.11076384782791138, 0.05367404967546463, -0.022812850773334503, -0.05994662269949913, 0.088557168841362, -0.09298568218946457, 0.03544800356030464, -0.04225533828139305, 0.09115787595510483, 0.06862624734640121, -0.03731409087777138, -0.05315503478050232, -0.014527928084135056, 0.046794746071100235, 0.08784853667020798, 0.08101177960634232, 0.07177086174488068, 0.13524818420410156, 0.0007488015689887106, 0.04367413744330406, 0.07534252852201462, 0.11067736148834229, 0.03160345181822777, 0.038476619869470596, -0.06363040953874588, -0.008918183855712414, -0.100424624979496, -0.027947165071964264, 0.010302305221557617, -0.018412519246339798, 0.010874785482883453, -0.08038507401943207, -0.017357606440782547, -0.04511904716491699, -0.027188261970877647, -0.016866296529769897, 0.06359370052814484, 0.08153682202100754, 0.013928379863500595, -0.07865194976329803, 0.0014475584030151367, -0.005869755055755377, 0.03925671428442001, 0.017378315329551697, 0.0331222340464592, 0.02370540052652359, -0.14193396270275116, 0.11313347518444061, 0.08685993403196335, 0.13670939207077026, -0.021700693294405937, 0.05594675615429878, 0.09467397630214691, 0.028513822704553604, -0.015918845310807228, 0.02364409901201725, 0.04668208584189415, -0.00616809818893671, 0.07910970598459244, -0.042958036065101624, -0.03492812067270279, -0.04903292655944824, 0.10080983489751816, 0.06977391242980957, 0.08588685840368271, -0.030246105045080185, 0.017282579094171524, -0.04300343245267868, -0.016167214140295982, -0.019636254757642746, -0.01836257614195347, 0.11626248061656952, -0.03820665925741196, 0.049513079226017, -0.07619021087884903, -0.053401969373226166, 0.05230271443724632, 0.10818292200565338, 0.08342902362346649, 0.1092376708984375, -0.13560114800930023, 0.07179770618677139, 0.10089582204818726, 0.0697774887084961, -0.01717831939458847, 0.07681415975093842, -0.11175379157066345, 0.0715332180261612, 0.09702738374471664, 0.04653216898441315, 0.0905548706650734, -0.027608368545770645, -0.10481978207826614, 0.0650603175163269, -0.09531331062316895, 0.1419069468975067, 0.04357020929455757, -0.029506349936127663, 0.13783679902553558, 0.012495307251811028, 0.1298142969608307, -0.09932558238506317, 0.023908887058496475, 0.040922991931438446, -0.103521429002285, 0.021279269829392433, 0.04546162113547325, -0.08686946332454681, 0.03405218571424484, 0.06602972000837326, 0.03045586124062538, 0.014823411591351032, -0.08179644495248795, 0.10563003271818161, 0.048877861350774765, 0.09544182568788528, 0.0326225645840168, -0.017624594271183014, -0.09027676284313202, 0.0493944026529789, 0.06309667974710464, -0.10751067847013474, 0.13323846459388733, 0.03383269160985947, 0.1201772689819336, 0.11468302458524704], [0.10787088423967361, -0.002895672107115388, -0.05241570249199867, 0.05860605463385582, -0.0005516777164302766, -0.07020094990730286, -0.07345200330018997, 0.01711948774755001, -0.04627067223191261, 0.037253912538290024, 0.08387723565101624, 0.1270589679479599, -0.027611184865236282, -0.04513968527317047, 0.04222099855542183, -0.0428670309484005, -0.06831356883049011, 0.12272246181964874, 0.014230004511773586, 0.07816749066114426, 0.004721025936305523, -0.0852348580956459, 0.07378023862838745, 0.05038422346115112, 0.015487758442759514, -0.09138552844524384, -0.04540947079658508, -0.0071351295337080956, -0.09569352865219116, -0.031891778111457825, 0.08886966109275818, -0.015373844653367996, -0.026323987171053886, -0.03492661565542221, 0.022917836904525757, -0.03383568674325943, -0.014529135078191757, -0.011251810006797314, 0.09126407653093338, 0.11407260596752167, 0.0007572397589683533, -0.019300781190395355, 0.030006347224116325, -0.009096721187233925, 0.01870422437787056, -0.012015970423817635, 0.09683740884065628, 0.05172449350357056, -0.10438663512468338, 0.08513496071100235, -0.07981030642986298, 0.12232252955436707, -0.030040884390473366, 0.010919352993369102, 0.13325591385364532, 0.010688982903957367, 0.006965532433241606, -0.013567273505032063, -0.01298227347433567, -0.020196104422211647, 0.10964474827051163, -0.03508122265338898, 0.020210277289152145, -0.09980850666761398, 0.1057332381606102, 0.11796620488166809, 0.10631181299686432, -0.03011540323495865, -0.08796653896570206, 0.011508211493492126, -0.027081452310085297, 0.026870673522353172, -0.029742760583758354, 0.1206204742193222, -0.04039587825536728, -0.04416867718100548, -0.07104169577360153, -0.013089317828416824, -0.05836952105164528, 0.02684902399778366, 0.13397343456745148, 0.07905828207731247, -0.030223499983549118, 0.050873029977083206, 0.10006342828273773, 0.07973047345876694, -0.11622297018766403, 0.0014061316614970565, 0.02618318796157837, 0.10557085275650024, 0.10088586062192917, -0.04012776538729668, 0.07434511184692383, -0.04759718477725983, -0.03143385797739029, 0.10346188396215439, -0.07698541134595871, 0.13009995222091675, 0.015694351866841316, 0.040917444974184036, 0.12586510181427002, 0.013561270199716091, 0.0738140121102333, -0.0683710053563118, 0.015628565102815628, -0.05990418419241905, -0.014752664603292942, 0.07452021539211273, -0.026538027450442314, -0.09519585967063904, 0.11474420130252838, -0.07685448974370956, -0.017159629613161087, -0.010015474632382393, -0.07646873593330383, 0.131264328956604, -0.043582476675510406, 0.1533658802509308, 0.004935931414365768, -0.01068264339119196, -0.11617325246334076, -0.040801119059324265, 0.03436627238988876, -0.06617872416973114, 0.14193874597549438, -0.016686247661709785, 0.11872308701276779, 0.07973019778728485], [-0.05540603771805763, 0.037832655012607574, -0.003025364363566041, 0.011995409615337849, 0.015058053657412529, 0.01612776145339012, 0.02828974649310112, -0.012161575257778168, -0.04284169524908066, 0.007569914683699608, -0.0639459490776062, 0.016158048063516617, -0.023809215053915977, 0.07503856718540192, -0.04637343809008598, 0.032739631831645966, 0.005939649883657694, 0.019463131204247475, 0.018621575087308884, 0.003644459182396531, 0.023097453638911247, 0.046794723719358444, 0.002543431706726551, -0.033674970269203186, 0.056842271238565445, 0.011709203012287617, -0.0016163559630513191, 0.0007622942212037742, 0.014767040498554707, 0.012541715055704117, -0.02799081616103649, 0.07249180227518082, -0.012242160737514496, -0.003052870510146022, 0.057847823947668076, 0.04160710424184799, -0.037453774362802505, -0.014904823154211044, -0.015101775527000427, 0.006518916226923466, -0.03226214647293091, 0.034783460199832916, 0.04271857813000679, 0.007856148295104504, 0.02060958556830883, -0.03345825523138046, 0.033453669399023056, 0.002652855357155204, -0.021641895174980164, -0.01717342622578144, -0.03028126433491707, -0.07074447721242905, -0.017563439905643463, -0.008016473613679409, 0.0132418442517519, -0.011662041768431664, -0.06740431487560272, -0.020235173404216766, 0.026648957282304764, -0.05747675895690918, -0.026298169046640396, -0.04712124168872833, 0.07404124736785889, 0.07388901710510254, -0.028964266180992126, -0.03397921100258827, 0.026812614873051643, 0.0727132111787796, 0.025329219177365303, -0.007070754189044237, 0.0013828934170305729, -0.0043692332692444324, -0.03960677981376648, 0.014157923869788647, 0.033296022564172745, 0.01839798502624035, 0.07266325503587723, 0.0011493072379380465, 0.0492265447974205, -0.015238025225698948, -0.0072319768369197845, -0.09819626808166504, 0.011490358039736748, -0.02196328341960907, 0.003149294061586261, -0.04353942349553108, -0.010853024199604988, 0.00031726420274935663, -0.001098656328395009, -0.03479558229446411, 0.017447862774133682, 0.0035553297493606806, 0.021204112097620964, 0.06179234758019447, 0.06086985394358635, 0.010992494411766529, 0.011869479902088642, -0.03023604489862919, -0.029525138437747955, -0.012049127370119095, -0.025975795462727547, -0.02428603544831276, -0.02520167827606201, -0.009249813854694366, -0.012120712548494339, 0.0410117469727993, 0.03734445944428444, 0.0002678633027244359, -0.026794159784913063, 0.06687411665916443, -0.006162690464407206, 0.022266298532485962, -0.04230452701449394, 0.006732499692589045, -0.03325159475207329, -0.025450225919485092, -0.011816640384495258, -0.06785997748374939, -0.021380413323640823, -0.004007977433502674, -0.014689360745251179, 0.008760835975408554, 0.007244850508868694, 0.00844054576009512, -0.009780284948647022, -0.03071681037545204, -0.056463953107595444, -0.027898959815502167], [-0.09407061338424683, -0.04963131994009018, -0.06878232955932617, -0.06541571021080017, -0.01122594065964222, 0.0057342820800840855, -0.09569788724184036, -0.011037898249924183, -0.04354063421487808, -0.09984198212623596, -0.107038713991642, -0.05920511856675148, -0.039136242121458054, 0.04287423565983772, -0.041017793118953705, -0.005797684192657471, 0.053958650678396225, -0.04857509210705757, 0.10873495042324066, -0.04034006968140602, 0.048561666160821915, 0.1426149606704712, 0.1306578516960144, 0.02081361599266529, 0.037332683801651, 0.14526455104351044, 0.013967260718345642, -0.009830008260905743, 0.09595444053411484, 0.004048390779644251, -0.10629329830408096, -0.04921017959713936, -0.025710059329867363, -0.014756295830011368, 0.03609224036335945, 0.005676377564668655, 0.0063316780142486095, 0.10245168209075928, -0.12449570745229721, -0.04140741005539894, -0.0014588609337806702, 0.019762083888053894, -0.03570101410150528, 0.0444992296397686, 0.023663576692342758, 0.10386175662279129, -0.04706171154975891, -0.10109897702932358, 0.04616418108344078, -0.07072458416223526, -0.08178915083408356, -0.059917908161878586, -0.025520682334899902, 0.10934089124202728, -0.11977565288543701, 0.02376462146639824, 0.06893563270568848, 0.021686159074306488, -0.05301350727677345, 0.1194264143705368, -0.05473760515451431, -0.015335239470005035, 0.047061990946531296, 0.012394917197525501, 0.04312139004468918, -0.11178827285766602, 0.07057070732116699, -0.006626608315855265, -0.0024540540762245655, -0.07733895629644394, -0.03365220129489899, 0.09732748568058014, -0.003446429269388318, -0.044322557747364044, 0.0029703862965106964, 0.10014821588993073, 0.020837603136897087, 0.027842193841934204, 0.0804162546992302, 0.12289520353078842, -0.11879410594701767, -0.013021758757531643, -0.02545706182718277, 0.09120937436819077, -0.10246268659830093, -0.13258002698421478, 0.05778247117996216, 0.06396766006946564, -0.0039135911501944065, -0.03388764336705208, -0.07699790596961975, -0.019523417577147484, 0.0027368632145226, 0.11688322573900223, -0.06983271986246109, -0.07820506393909454, -0.06285721063613892, -0.048589352518320084, 0.0026314628776162863, 0.0010722652077674866, -0.017010197043418884, 0.14091549813747406, -0.030095677822828293, -0.05789293721318245, -0.013705350458621979, 0.05503500625491142, -0.05483084172010422, -0.08389982581138611, -0.037157632410526276, 0.13202381134033203, -0.10473106801509857, 0.1413998007774353, -0.030687877908349037, 0.10914884507656097, -0.0479746051132679, -0.08655913174152374, -0.048233211040496826, -0.08811444789171219, 0.00945347547531128, 0.035203542560338974, 0.1282404363155365, 0.04636761173605919, 0.12039949744939804, 0.13654500246047974, -0.0808250829577446, 0.0923459455370903, -0.08950517326593399, -0.12198155373334885], [-0.00786219909787178, -0.04275259003043175, 0.0003199353814125061, -0.004970919340848923, 0.004779528826475143, -0.005236484110355377, -0.0013599880039691925, -0.009074606001377106, -0.020389223471283913, 0.04979041591286659, 0.03472807630896568, -0.03303523361682892, -0.048659540712833405, 0.004344724118709564, 0.03840184584259987, -0.04931304603815079, -0.023080408573150635, 0.023759614676237106, 0.03897077217698097, -0.022617781534790993, 0.007246099412441254, 0.011153507977724075, -0.03789050504565239, -0.020476533100008965, 0.03638051822781563, -0.04213573783636093, 0.03430105373263359, 0.04789538308978081, 0.009842991828918457, -0.042479004710912704, -0.022377610206604004, -0.0395246259868145, 0.03464900329709053, 0.048798952251672745, 0.0004037246108055115, 0.022317934781312943, 0.009576402604579926, 0.04497680440545082, 0.0409182570874691, -0.03863124921917915, 0.013514664024114609, 0.022908415645360947, 0.02651318535208702, -0.0005996711552143097, 0.006445396691560745, -0.008835304528474808, 0.04641541466116905, 0.03133738413453102, -0.005126964300870895, 0.037374112755060196, -0.04399508237838745, 0.02354990318417549, -0.03302164375782013, -0.04786564037203789, 0.04030987247824669, 0.020217645913362503, -0.010155964642763138, -0.004044901579618454, 0.02454085275530815, 0.030557285994291306, 0.010436773300170898, 0.04162532463669777, 0.006017506122589111, 0.0217706598341465, -0.012372184544801712, 0.043528784066438675, -0.046231675893068314, 0.0067715272307395935, 0.027626898139715195, -0.03808354213833809, 0.006480611860752106, 0.03073786571621895, 0.043312061578035355, -0.04459488391876221, 0.029823411256074905, -0.03281252458691597, -0.02173253335058689, 0.006702102720737457, -0.017066191881895065, -0.04611944034695625, 0.012762751430273056, 0.02095874771475792, 0.013066735118627548, 0.041846226900815964, 0.02799321338534355, -0.02193087339401245, -0.023150373250246048, 0.01272200420498848, 0.04423895105719566, 0.048725057393312454, -0.005051754415035248, -0.03412685543298721, 0.02167585864663124, 0.011881232261657715, 0.0331672765314579, 0.021995309740304947, 0.044418979436159134, -0.02053527906537056, -0.0026327595114707947, -0.010022200644016266, -0.04189342260360718, -0.02076597325503826, 0.007883250713348389, -0.04411062225699425, -0.049773454666137695, -0.039627064019441605, -0.006395231932401657, 0.04509332403540611, -0.0034018047153949738, -0.0026913397014141083, 0.044905390590429306, -0.020300734788179398, -0.020022869110107422, -0.04970398172736168, -0.010963808745145798, -0.022134292870759964, -0.04844668135046959, -0.03065354935824871, 0.014421496540307999, 0.03197718784213066, -0.03800711780786514, 0.03795583173632622, 0.03267047181725502, -0.0038089267909526825, 0.0016467459499835968, -0.011593379080295563, -0.02228490076959133, 0.045171309262514114], [0.07068639993667603, -0.014995325356721878, 0.07097890973091125, -0.026434235274791718, 0.029111698269844055, -0.0008610770455561578, -0.002305314876139164, 0.031270407140254974, 0.05628659576177597, 0.008228478953242302, 0.004067517351359129, 0.04575458541512489, 0.018058761954307556, 0.02790515124797821, -0.032098472118377686, 0.03104262426495552, -0.056156788021326065, 0.07753881067037582, -0.055521149188280106, -0.01712241768836975, 0.08527246862649918, -0.06595941632986069, 0.013892214745283127, 0.026689082384109497, 0.028453441336750984, -0.0014817927731201053, 0.014992780983448029, -0.025622539222240448, -0.07068393379449844, 0.037461474537849426, 0.028328977525234222, 0.024331988766789436, -0.014632940292358398, 0.050939951092004776, 0.04107921943068504, -0.04412762075662613, 0.033561401069164276, -0.006934675388038158, 0.06729409098625183, -0.03666212409734726, -0.03722257539629936, 0.07725933194160461, -0.015124201774597168, 0.027889523655176163, 0.07355134934186935, -0.04872334375977516, 0.07285720854997635, 0.07776787877082825, -0.15706808865070343, 0.0040832883678376675, 0.050732310861349106, 0.055985674262046814, 0.010876227170228958, -0.07488599419593811, 0.0481204055249691, -0.042795754969120026, -0.038801103830337524, 0.0028766512405127287, 0.09571504592895508, -0.05319212004542351, -0.02035517245531082, -0.023756323382258415, 0.07895759493112564, 0.04765202850103378, -0.0032170063350349665, -0.011690683662891388, 0.008108019828796387, -0.017729422077536583, -0.037496909499168396, 0.008453828282654285, 0.023670557886362076, -0.046705663204193115, 0.0451568104326725, 0.03470555320382118, 0.023780610412359238, -0.06392452865839005, 0.004096285905689001, 0.05394643172621727, -0.03949613869190216, -0.040029801428318024, 0.02261229418218136, -0.03988899290561676, 0.005046163685619831, -0.01982703246176243, 0.06156409531831741, -0.017415838316082954, -0.01344232726842165, 0.023341037333011627, 0.026355449110269547, 0.07271973043680191, 0.008597061038017273, 0.01897001452744007, 0.015865664929151535, -0.03948149085044861, -0.01897299289703369, 0.000155021931277588, 0.050938814878463745, -0.02941867709159851, 0.02341458946466446, 0.0059908851981163025, -0.05567797273397446, -0.05954141169786453, -0.08634451776742935, -0.036182232201099396, 0.0017942674458026886, 0.004965991713106632, 0.028329923748970032, 0.12385160475969315, 0.011887989938259125, -0.009373893961310387, 0.08366530388593674, 0.0021391736809164286, 0.007901850156486034, -0.011148182675242424, -0.02688789740204811, 0.05955551192164421, 0.039079178124666214, -0.052237436175346375, 0.04279928281903267, 0.07900781184434891, -0.044572994112968445, -0.03849032148718834, -0.012364246882498264, -0.09639178961515427, 0.004900502506643534, -0.07357615232467651, -0.028236331418156624, -0.019673913717269897], [0.014732766896486282, -0.046338606625795364, 0.021528031677007675, -0.008901547640562057, -0.025679493322968483, 0.005452550947666168, -0.021099675446748734, -0.029740167781710625, 0.008978627622127533, -0.004489637911319733, -0.018387414515018463, 0.027467500418424606, 0.015255007892847061, -0.028351355344057083, -0.042956650257110596, -0.048901211470365524, -0.005626965314149857, 0.012790288776159286, -0.0038577094674110413, 0.03417978063225746, -0.04550490528345108, -0.03624607250094414, -0.03168608993291855, 0.015572752803564072, -0.04616517946124077, -0.04719379171729088, -0.01176973432302475, 0.03054438903927803, 0.03767061606049538, -0.0002917647361755371, 0.042517032474279404, 0.04161462560296059, -0.007878340780735016, -0.04340153932571411, 0.03492486849427223, 0.040710318833589554, 0.014993403106927872, -0.005774460732936859, -0.025948738679289818, 0.033151041716337204, -0.04266030713915825, 0.02308965101838112, -0.024279868230223656, -0.004710495471954346, 0.004929196089506149, 0.044592585414648056, 0.0058334581553936005, 0.0026999004185199738, -0.033644817769527435, 0.007132183760404587, 0.04644240066409111, -0.00715179368853569, -0.04591921716928482, -0.032022345811128616, 0.013022009283304214, 0.03560120239853859, 0.027629505842924118, 0.0037487968802452087, -0.026080334559082985, 0.03800607845187187, 0.0011735185980796814, -0.007306613028049469, 0.045522142201662064, 0.014143239706754684, -0.022939933463931084, -0.04720407724380493, 0.0485500805079937, 0.04191095754504204, 0.039250437170267105, -0.04506121948361397, 0.000474490225315094, -0.02244659699499607, -0.017767656594514847, 0.01566561684012413, 0.0015637166798114777, 0.013940636068582535, 0.008902441710233688, -0.017991770058870316, 0.01600487157702446, 0.045847419649362564, 0.001447439193725586, 0.03486282005906105, 0.046127643436193466, 0.03639115020632744, -0.010728169232606888, 0.02553483471274376, -0.006148863583803177, 0.030587825924158096, 0.0214369036257267, -0.009064186364412308, 0.04028240218758583, -0.022767210379242897, -0.011809706687927246, -0.04300086572766304, 0.021304134279489517, 0.027681831270456314, 0.022407066076993942, -0.011283624917268753, 0.048745084553956985, 0.025113072246313095, 0.0025705471634864807, 0.030587319284677505, -0.02266871929168701, -0.03612853214144707, -0.04695294052362442, 0.006490826606750488, -0.02077735774219036, 0.01772259548306465, -0.03635493665933609, -0.011766064912080765, 0.012440823018550873, 0.03608471527695656, -0.03075488843023777, 0.047620322555303574, -0.009319532662630081, 0.020691487938165665, 0.008733592927455902, -0.018574856221675873, 0.0328168161213398, -0.030302977189421654, 0.027725066989660263, -0.048372235149145126, -0.026541614904999733, -0.015364743769168854, 0.009910322725772858, 0.026358578354120255, -0.02990039624273777, 0.012579213827848434], [-0.006595264654606581, -0.01838235929608345, 0.06456008553504944, -0.02007041685283184, 0.0007406714139506221, 0.0012958577135577798, 0.0012964351335540414, -0.03974815830588341, -0.03948385640978813, 0.04825841635465622, 0.05417654290795326, 0.013772073201835155, -0.013322067447006702, -0.03347610682249069, -0.03027585707604885, -0.010638763196766376, -0.05322623625397682, 0.0350860096514225, 0.0016247142339125276, 0.04350176826119423, 0.00258015189319849, -0.07523373514413834, 0.04894483834505081, 0.06068906933069229, -0.0461050346493721, -0.06810937821865082, -0.024060923606157303, -0.05404612794518471, 0.05652892217040062, 0.0221158005297184, 0.039589766412973404, -0.03421181067824364, 0.012249507009983063, 0.017436590045690536, 0.016681453213095665, 0.010008002631366253, 0.010943529196083546, -0.07852524518966675, -0.012142875231802464, -0.021640896797180176, -0.03853694349527359, 0.06581087410449982, 0.04549214616417885, -0.018311461433768272, -0.016577092930674553, -0.031406138092279434, 0.03823009878396988, 0.0670713409781456, -0.0031495450530201197, -0.011275609955191612, -0.010979066602885723, 0.03990339860320091, -0.04246542602777481, 0.007169476710259914, 0.05194936692714691, -0.001345783588476479, -0.04794948175549507, 0.0143356928601861, -0.01117745041847229, 0.020216120406985283, 0.017355317249894142, 0.0046984003856778145, 0.03200914338231087, 0.05258680507540703, 0.012377383187413216, 0.03291860967874527, -0.02323552966117859, 0.03351874276995659, -0.03445299714803696, 0.09641776978969574, 0.009799226187169552, -0.055183544754981995, -0.046687882393598557, -0.036404311656951904, -0.0498448871076107, -0.05042460933327675, -0.013254886493086815, 0.037751514464616776, -0.07084280252456665, 0.0683581680059433, 0.007129421457648277, -0.002882702276110649, -0.005381795112043619, 0.028455335646867752, 0.05989130958914757, -0.028011154383420944, 0.003700405592098832, -0.06562894582748413, 0.05070939287543297, -0.0058919508010149, -0.046001505106687546, -0.056712016463279724, 0.02988475188612938, -0.020985420793294907, 0.055660225450992584, 0.08343160152435303, -0.0234305951744318, 0.0059777540154755116, 0.022384658455848694, 0.03125024959445, -0.013123366050422192, -0.023554986342787743, -0.02480706386268139, 0.03434980660676956, -0.004969071596860886, -0.0389782078564167, 0.009435293264687061, -0.009501202963292599, 0.03926876559853554, 0.030983278527855873, 0.017052017152309418, -0.014273134060204029, -0.034491635859012604, 0.01387331634759903, -0.02832264080643654, 0.01779453456401825, 0.018012715503573418, 0.05083349719643593, -0.025269949808716774, -0.002394394250586629, -0.00850286241620779, -0.00615052692592144, 0.006053081247955561, 0.018216311931610107, 0.004235373344272375, -0.03721190243959427, -0.009198976680636406, 0.038544654846191406], [-0.01045422162860632, 0.1024373322725296, 0.12193316966295242, -0.0065555814653635025, 0.04415041580796242, 0.006692241411656141, -0.006657372694462538, 0.0797731950879097, -0.06909601390361786, 0.023222003132104874, 0.028456086292862892, 0.013985708355903625, -0.022846881300210953, 0.11220640689134598, 0.021593336015939713, 0.03958812728524208, 0.006749477703124285, 0.03629843890666962, -0.009600355289876461, -0.06665226817131042, 0.10725773125886917, -0.0770740881562233, -0.05369992181658745, -0.041915737092494965, 0.008770827203989029, -0.08555617183446884, 0.08956624567508698, 0.007899802178144455, 0.060138899832963943, -0.017400825396180153, -0.08352760225534439, 0.05230521783232689, -0.019385505467653275, 0.12037250399589539, 0.030029015615582466, 0.0033839717507362366, -0.04132785648107529, -0.053700149059295654, -0.049518290907144547, -0.1000291034579277, 0.004244722425937653, 0.08631852269172668, 0.020392868667840958, 0.015069706365466118, 0.10915687680244446, 0.013028199784457684, 0.1417626589536667, 0.015877407044172287, -0.09267909824848175, -0.07545057684183121, 0.038769278675317764, -0.04090067744255066, 0.01156909391283989, -0.03965238854289055, -0.03659471869468689, 0.04416446387767792, 0.013285128399729729, -0.036525022238492966, 0.1068364828824997, -0.05973434820771217, -0.018574651330709457, 0.03093857690691948, 0.10458419471979141, 0.09601947665214539, -0.050734806805849075, 0.02258048579096794, -0.051976609975099564, 0.07120852917432785, -0.10249820351600647, -0.0011954365763813257, 0.03669678792357445, -0.05416816845536232, -0.018617471680045128, -0.07909641414880753, -0.027008092030882835, -0.05044194310903549, 0.0717974603176117, 0.08298266679048538, 0.0061994148418307304, -0.08263826370239258, -0.03134465962648392, -0.03641577810049057, 0.11060541123151779, 0.036623064428567886, 0.0012311991304159164, -0.07605236768722534, 0.001109456643462181, -0.016122495755553246, 0.017013639211654663, -0.00979566853493452, -0.048025745898485184, 0.11938071250915527, -0.03956632688641548, 0.08289482444524765, 0.09989777952432632, -0.10219897329807281, 0.057974930852651596, -0.06225963309407234, 0.040667593479156494, 0.04966559633612633, 0.02747296914458275, -0.05712103471159935, -0.03798175975680351, 0.0024665044620633125, -0.03322808817028999, -0.08344712108373642, 0.11072622239589691, 0.10751719027757645, 0.04102962091565132, 0.05911324918270111, -0.057567086070775986, -0.09542855620384216, -0.02193068340420723, -0.04585210978984833, -0.05414227023720741, -0.01933061145246029, -0.036686401814222336, 0.03822321072220802, -0.04084045812487602, 0.07989924401044846, 0.05804077535867691, -0.011551021598279476, -0.050038184970617294, -0.09867221862077713, -0.042533352971076965, -0.06839876621961594, -0.10423789918422699, -0.05203033983707428], [0.03684715926647186, 0.03533301129937172, 0.009415036998689175, -0.01311727985739708, 0.023579999804496765, 0.03263016790151596, 0.0350172221660614, -0.04168492183089256, -0.05171056464314461, 0.007056813687086105, 0.03276340290904045, -0.013485747389495373, 0.017580201849341393, -0.0128481425344944, -0.005083799362182617, -0.03663751482963562, -0.03020568937063217, -0.010871858336031437, -0.03857220336794853, 0.05664113536477089, -0.014095169492065907, -0.005332725588232279, 0.08900553733110428, -0.009890670888125896, -0.060006532818078995, -0.07518049329519272, 0.011810324154794216, 0.007260444574058056, -0.009681206196546555, 0.0026676699053496122, 0.13425356149673462, -0.00877930037677288, -0.021973181515932083, 0.051034312695264816, -0.047991856932640076, -0.028141900897026062, -0.041520167142152786, 0.006111320108175278, 0.02658737637102604, 0.06728358566761017, -0.047472741454839706, 0.003609125269576907, 0.0183759443461895, 0.013513193465769291, -0.04292149469256401, -0.05480075255036354, 0.057654377073049545, 0.02154776081442833, 0.05006704851984978, 0.0022861650213599205, -0.009951951913535595, -0.00421698996797204, -0.036828529089689255, 0.033933937549591064, -0.02522214688360691, -0.00984131544828415, -0.024128979071974754, 0.006078508682549, -0.04814527556300163, 0.14958135783672333, -0.036812007427215576, -0.010784533806145191, 0.011017860844731331, -0.023675978183746338, 0.027125371620059013, 0.034557271748781204, 0.08389066904783249, 0.015915215015411377, 0.008407081477344036, 0.03781656175851822, -0.0006434305105358362, 0.0002863756089936942, -0.03554624691605568, 0.05386114493012428, 0.013418640941381454, -0.06184922158718109, 0.04398633912205696, -0.03001827746629715, -0.05995221436023712, 0.0959976390004158, 0.04204266145825386, 0.031000809744000435, 0.022334640845656395, 0.026557138189673424, -0.007724285125732422, -0.03577158600091934, -0.022079525515437126, -0.029298605397343636, 0.048861559480428696, 0.022467004135251045, -0.00040627969428896904, -0.09380973875522614, 0.007197272032499313, 0.07329970598220825, 0.04648256301879883, 0.03896176815032959, 0.01291531603783369, 0.0206987913697958, -0.021811148151755333, -0.01129542663693428, 0.055867619812488556, -0.07252689450979233, 0.03016124665737152, 0.1128498837351799, 0.01910385861992836, 0.007195115089416504, -0.01419143658131361, -0.04095488414168358, -0.03644074127078056, 0.023834383115172386, 0.09859707206487656, -0.08127102255821228, -0.04079775512218475, 0.006961527280509472, 0.04189267009496689, 0.029172712936997414, -0.04450416564941406, 0.005696204956620932, -0.016311369836330414, -0.01393310260027647, 0.02908121980726719, -0.04557032138109207, 0.0926498994231224, -0.025985291227698326, -0.0058936867862939835, -0.07126025855541229, 0.07266481220722198, 0.067007876932621], [0.0714375227689743, -0.07127322256565094, -0.07686029374599457, 0.08305627852678299, 0.03375139832496643, -0.1330569088459015, 0.06652253866195679, -0.0738113522529602, 0.11722859740257263, -0.03425765410065651, 0.1467043161392212, 0.11736483871936798, -0.04291604831814766, -0.11950530856847763, -0.01082976907491684, -0.013568946160376072, 0.1077272966504097, 0.09969586133956909, 0.09680477529764175, 0.10804500430822372, -0.05841218680143356, 0.11236000061035156, 0.10770689696073532, 0.06493177264928818, 0.008791377767920494, 0.07653530687093735, -0.09591589868068695, 0.0057160803116858006, -0.05724335461854935, -0.03978802636265755, 0.10326435416936874, -0.12576176226139069, -0.01852273941040039, -0.050956256687641144, -0.07734084129333496, 0.009328912943601608, 0.010431584902107716, 0.01758400723338127, 0.06367526948451996, 0.0832456424832344, 0.00693974643945694, -0.0868217796087265, 0.02964533492922783, -0.06645458191633224, -0.03552352264523506, -0.000543505884706974, 0.03662708029150963, 0.009532462805509567, 0.04861696437001228, 0.13201892375946045, 0.06490481644868851, 0.12261614948511124, 0.0005751624703407288, 0.01899772882461548, 0.13174298405647278, -0.03445059061050415, 0.0841742679476738, -0.012864513322710991, 0.08094608038663864, 0.08270756155252457, 0.03232121840119362, -0.027040326967835426, -0.0855935662984848, -0.05368264764547348, 0.09015047550201416, 0.14338970184326172, 0.1126522645354271, -0.10840244591236115, 0.061372339725494385, 0.08964123576879501, 0.012274909764528275, 0.006046815775334835, -0.034418102353811264, 0.07831845432519913, 0.0034016594290733337, 0.09395469725131989, -0.06953684985637665, -0.08727004379034042, 0.10396425426006317, 0.14547447860240936, 0.05308182165026665, 0.019477298483252525, -0.10131669789552689, 0.06523039191961288, 0.11280803382396698, 0.14785407483577728, -0.06455668061971664, 0.09508582204580307, -0.11112850159406662, 0.10939479619264603, 0.15668490529060364, 0.022640952840447426, 0.08359365165233612, -0.09041693806648254, -0.06151460483670235, 0.08967091143131256, -0.06168154627084732, 0.09317324310541153, -0.015751786530017853, -0.04164677858352661, 0.05349477380514145, 0.0923733115196228, 0.03452681005001068, -0.07554268836975098, 0.02415262535214424, 0.09711203724145889, -0.08179731667041779, 0.034797631204128265, 0.038899365812540054, -0.05902797356247902, 0.15456567704677582, 0.09687924385070801, -0.03836871311068535, 0.02776610292494297, 0.043699171394109726, 0.09781018644571304, -0.027599632740020752, -0.014545365236699581, 0.006642498075962067, -0.08481159806251526, -0.05450770631432533, 0.044822465628385544, 0.07697869092226028, 0.04620756581425667, -0.010110877454280853, 0.02510867826640606, 0.06579916924238205, 0.12149006873369217], [0.02184475027024746, 0.07307987660169601, 0.0656312108039856, -0.025488870218396187, 0.02143760770559311, -0.023456718772649765, 0.04372146353125572, -0.017808256670832634, 0.03729953616857529, 0.003379023866727948, -0.03077760525047779, 0.04030235484242439, 0.01870061457157135, 0.02146889828145504, -0.043636202812194824, 0.04398076981306076, -0.07573119550943375, 0.042894668877124786, -0.020673824474215508, 0.014257308095693588, -0.03237871825695038, -0.0218364167958498, 0.06312130391597748, 0.011296341195702553, -0.047184497117996216, -0.09160647541284561, 0.06917241960763931, 0.028429215773940086, 0.03415144607424736, -0.020347286015748978, 0.05583963543176651, 0.015040311962366104, 0.014136601239442825, 0.027376366779208183, -0.02385754883289337, -0.04566872492432594, 0.01387372612953186, -0.06021454185247421, -0.007693310268223286, 0.07919026911258698, 0.003550328314304352, 0.012162436731159687, 0.04681245610117912, 0.06078057736158371, -0.008500342257320881, 0.02401162125170231, 0.06135803833603859, 0.012963990680873394, 0.03945794701576233, -0.0010497458279132843, 0.010954547673463821, 0.07123661786317825, 0.04932183399796486, 0.046335939317941666, 0.04748619720339775, 0.045167047530412674, -0.06124253571033478, -0.02407539077103138, -0.037703968584537506, 0.05451293662190437, -0.021841436624526978, -0.02578580006957054, 0.058419808745384216, 0.018303990364074707, 0.03347189351916313, -0.02888689562678337, 0.014327988028526306, 0.04426368698477745, 0.05971621349453926, 0.09105964750051498, 0.02327067404985428, -0.02000901661813259, -0.013205395080149174, -0.0021763730328530073, -0.03435166925191879, -0.005860959179699421, 0.055223651230335236, 0.008203977718949318, -0.035139888525009155, 0.05269654467701912, 0.005624547600746155, -0.012956523336470127, 0.04744905233383179, 0.03004676289856434, 0.00760204903781414, 0.05393426492810249, 0.05896762013435364, -0.07840865105390549, 0.06197091192007065, 0.023454857990145683, 0.017205597832798958, -0.0551583506166935, -0.0160051342099905, -0.021536067128181458, 0.021760335192084312, 0.0619078166782856, 0.050100166350603104, 0.0327916219830513, 0.02891913801431656, -0.022976456210017204, -0.03965925797820091, -0.018195809796452522, -0.038719914853572845, 0.021562697365880013, 0.038172367960214615, -0.03466827794909477, 4.6680914238095284e-05, 0.06309011578559875, -0.02568429708480835, 0.020443648099899292, 0.08489681780338287, -0.05843367427587509, -0.04560144245624542, -0.0608590729534626, -0.037894368171691895, 0.04737744852900505, -0.038894180208444595, -0.02455732598900795, -0.016226578503847122, -0.01225979533046484, 0.013516800478100777, 0.0034580968786031008, 0.05632977932691574, 0.046888355165719986, 0.014153753407299519, -0.06662868708372116, -0.012057526968419552, 0.008402948267757893], [-0.10566094517707825, 0.10222800076007843, 0.11637348681688309, -0.03814399614930153, 0.042448416352272034, 0.08744010329246521, -0.009438889101147652, 0.12272828072309494, -0.1064782664179802, -0.003952835686504841, -0.07097365707159042, -0.06491632759571075, -0.02171972207725048, 0.07774438709020615, 0.002776704728603363, 0.02652401477098465, -0.011281931772828102, 0.04370800033211708, -0.03321317955851555, -0.08023736625909805, 0.11005739867687225, -0.0025555791798979044, -0.1398741751909256, -0.13161735236644745, 0.10917041450738907, -0.08073532581329346, 0.01637233980000019, 0.00019740498100873083, 0.01902739889919758, -0.024613190442323685, -0.07745303213596344, 0.05853185057640076, 0.008929990231990814, 0.10899296402931213, 0.11321332305669785, 0.04042121395468712, 0.044549860060214996, -0.0703577846288681, -0.10712238401174545, -0.12741363048553467, 0.01447230949997902, 0.03487979620695114, -0.004360280930995941, -0.05979074537754059, 0.07727683335542679, -0.038778919726610184, 0.09129856526851654, 0.05854419991374016, 0.015830766409635544, -0.0367351658642292, 0.02648581936955452, -0.08181248605251312, -0.016097139567136765, -0.09323708713054657, -0.049658045172691345, -0.030942607671022415, -0.01876925490796566, 0.03183173015713692, 0.08733018487691879, -0.12357477098703384, 0.013325887732207775, 0.016337525099515915, 0.1014183759689331, 0.05390612408518791, -0.13725504279136658, -0.06547649949789047, -0.11418641358613968, 0.10951227694749832, -0.07901227474212646, -0.006266687531024218, -0.014966405928134918, -0.035491395741701126, 0.03549015894532204, -0.11598876863718033, 0.015456724911928177, -0.029406215995550156, 0.05962419882416725, 0.07240968197584152, -0.0778115838766098, -0.1805427223443985, -0.07753480970859528, 0.040107812732458115, 0.06758089363574982, 0.006753094494342804, -0.09500501304864883, -0.12035351991653442, 0.05544700101017952, -0.07885171473026276, 0.02354384958744049, -0.05974414944648743, 0.0008487722370773554, 0.11024545878171921, -0.13640473783016205, 0.07213689386844635, 0.09055030345916748, -0.12765838205814362, 0.12380144000053406, 0.009295180439949036, 0.021304305642843246, -0.04383889585733414, -0.020569026470184326, -0.02991768904030323, -0.0386415496468544, -0.12791801989078522, -0.04841679334640503, -0.08228527009487152, 0.10644424706697464, 0.049400780349969864, 0.037978459149599075, 0.06585441529750824, -0.037295758724212646, -0.014417377300560474, -0.036530397832393646, -0.0036236681044101715, 0.03254007175564766, -0.050875674933195114, 0.02194077894091606, -0.012406967580318451, -0.039258621633052826, 0.05774140730500221, -0.015198730863630772, 0.003048337996006012, -0.07132922112941742, -0.005803470499813557, -0.007121168076992035, -0.022168921306729317, -0.15180088579654694, -0.10462987422943115], [-0.02290870063006878, -0.005543135106563568, 0.031748998910188675, -0.034806929528713226, -0.032673049718141556, 0.04289131239056587, -0.015136588364839554, 0.02261343225836754, -0.007492829114198685, 0.0340697206556797, 0.03144269064068794, 0.04074454680085182, -0.036753810942173004, -0.015360213816165924, -0.04168945550918579, 0.041554976254701614, 0.003423251211643219, -0.04144909232854843, -0.01813872903585434, 0.031689394265413284, -0.03430134057998657, -0.025717079639434814, -0.020081376656889915, 0.018506500869989395, -0.012932516634464264, 0.018560435622930527, 0.0065583959221839905, 6.450340151786804e-05, 0.040728453546762466, -0.014066744595766068, -0.01935756206512451, 0.009400486946105957, 0.01969900354743004, 0.02507523074746132, -0.04437437281012535, 0.035010162740945816, -0.017825543880462646, -0.04529235512018204, 0.0019474998116493225, 0.011054672300815582, -0.008723773062229156, -0.0009634383022785187, 0.017895761877298355, -0.0059373751282691956, 0.009355593472719193, 0.007405031472444534, 0.006456553936004639, 0.044387247413396835, 0.008889816701412201, 0.02009866014122963, -0.007368899881839752, 0.036052968353033066, 0.0004693754017353058, -0.0058502331376075745, -0.03550467640161514, 0.018988560885190964, 0.033019546419382095, -0.033155299723148346, 0.0330766923725605, -0.04201707988977432, -0.011976860463619232, 0.045374248176813126, -0.018198419362306595, 0.023098375648260117, -0.008768439292907715, 0.04973703995347023, 0.041460875421762466, 0.04212573543190956, -0.03548695892095566, 0.03419603034853935, 0.04484107717871666, -0.03634713962674141, 0.006554830819368362, 0.00992654636502266, -0.01931638829410076, -0.024590492248535156, -0.013280250132083893, -0.01778237894177437, 0.02428683266043663, -0.01168287917971611, -0.019946550950407982, -0.014036916196346283, -0.022718382999300957, 0.04571472480893135, -0.015240631997585297, 0.03030790016055107, -0.013914931565523148, -0.009592689573764801, -0.03263028711080551, -0.01955331675708294, -0.025666702538728714, -0.016227684915065765, 0.0022504106163978577, 0.02933913841843605, -0.005627952516078949, -0.037507571280002594, 0.044744763523340225, -0.0014406926929950714, -0.0035517923533916473, 0.032009515911340714, -0.044806480407714844, 0.03962074592709541, -0.03810284286737442, -0.04127151891589165, 0.04634585604071617, -0.007202696055173874, -0.04343876987695694, -0.0005033612251281738, -0.013809014111757278, -0.014580585062503815, 0.006185363978147507, -0.01795186847448349, -0.03044070117175579, -0.0008372887969017029, 0.00716090202331543, 0.010847877711057663, -0.027708185836672783, -0.026102114468812943, 0.00659555196762085, -0.03417346626520157, 0.03502482548356056, -0.01991049014031887, 0.033410895615816116, 0.030194345861673355, 0.04885328188538551, 0.013043884187936783, 0.03381771966814995, 0.02978435531258583], [0.12267191708087921, -0.09374337643384933, -0.050176654011011124, 0.13734941184520721, 0.04000139236450195, -0.022305384278297424, 0.06614167988300323, -0.10166189819574356, 0.0016824109479784966, 0.11280208081007004, 0.033742643892765045, 0.06906796991825104, 0.030482804402709007, -0.028375644236803055, -0.044332634657621384, 0.034766580909490585, 0.03166099265217781, 0.04777463525533676, 0.02641991153359413, 0.12153895199298859, -0.1754126399755478, 0.0801762118935585, 0.18978452682495117, 0.16299651563167572, -0.1806298792362213, 0.07598501443862915, -0.04966625198721886, -0.03316370025277138, -0.011853579431772232, 0.02594914473593235, 0.30778968334198, -0.17255212366580963, 0.022624801844358444, -0.04659354314208031, -0.19284588098526, -0.037104666233062744, 0.006718534044921398, 0.03090531937777996, 0.05501307174563408, 0.20899826288223267, -0.014164648950099945, -0.052417222410440445, -0.04484432563185692, 0.09082535654306412, -0.21834176778793335, 0.021458229050040245, 0.11834749579429626, 0.1232963427901268, 0.07826858013868332, 0.04890034347772598, 0.0008113710791803896, 0.0769202932715416, -0.019749904051423073, 0.15501248836517334, 0.09230507165193558, -0.011362981051206589, 0.010014628060162067, -0.0022046954836696386, -0.012906874530017376, 0.2905540466308594, 0.027747130021452904, 0.03243716061115265, -0.17775580286979675, -0.0783284530043602, 0.18528631329536438, 0.12321416288614273, 0.20801186561584473, -0.06715650856494904, 0.037313319742679596, 0.1866692155599594, 0.03064217045903206, 0.032251786440610886, 0.027955742552876472, 0.13963204622268677, -0.04441528394818306, -0.0008651129901409149, -0.03858044371008873, -0.03208962455391884, -6.83092002873309e-05, 0.27707237005233765, 0.07153979688882828, 0.030123546719551086, -0.0480964332818985, 0.030682921409606934, 0.09157705307006836, 0.06776829808950424, 0.019280942156910896, 0.07449113577604294, -0.0007461976492777467, 0.10520735383033752, 0.08432800322771072, -0.1545668989419937, 0.18629814684391022, -0.03263109549880028, -0.05245242640376091, 0.16035763919353485, -0.050635598599910736, 0.048646479845047, 0.04792969301342964, -0.0034876924473792315, 0.04064050316810608, 0.06424058973789215, 0.0725945383310318, 0.09902418404817581, 0.011604595929384232, 0.027552513405680656, -0.08529671281576157, 0.06729036569595337, 0.023964811116456985, -0.061238426715135574, 0.1765604168176651, 0.07617928087711334, 0.0275687575340271, 0.04541119933128357, -0.043745748698711395, 0.04096856713294983, 0.010422192513942719, -0.004690748173743486, -0.02830449305474758, -0.17785322666168213, 0.06864897161722183, 0.040918465703725815, 0.2841930687427521, 0.09202024340629578, 0.043210286647081375, 0.06238657608628273, 0.17981837689876556, 0.19846440851688385], [0.007757835555821657, 0.08499426394701004, 0.06803774833679199, -0.057619690895080566, -0.014010739512741566, 0.024076011031866074, 0.013279452919960022, 0.04253769665956497, -0.05116087570786476, 0.05467521771788597, 0.013498603366315365, 0.026079410687088966, -0.012582877650856972, 0.09830905497074127, -0.04943697527050972, 0.0015615238808095455, -0.010067183524370193, 0.0516405925154686, 0.031381502747535706, -0.042678359895944595, 0.09378507733345032, -0.0022885215003043413, -0.10294969379901886, -0.05759045109152794, 0.12169788032770157, -0.007893223315477371, 0.0008963170694187284, 0.014124404639005661, 0.021618444472551346, 0.02632603980600834, -0.046966757625341415, 0.1034931018948555, 0.028151486068964005, 0.0374896340072155, 0.015802888199687004, -0.014462877064943314, -0.01781594753265381, 0.03255105018615723, -0.0044672200456261635, -0.0611773319542408, -0.00027828291058540344, 0.10699284821748734, -0.030331267043948174, -0.012936984188854694, 0.12664364278316498, -0.040106020867824554, 0.09806051850318909, 0.06846977025270462, -0.012469196692109108, -0.009327440522611141, 0.050423987209796906, -0.04281581565737724, -0.006435297429561615, -0.1047527864575386, -0.04764069244265556, 0.023148881271481514, 0.009465564973652363, 0.0016745924949645996, 0.0905674621462822, -0.12280257046222687, 0.04394054412841797, -0.03853806108236313, 0.10512211173772812, 0.07974400371313095, -0.09767906367778778, 0.004004541784524918, -0.07579120248556137, 0.09356365352869034, -0.04124459996819496, 0.0033495482057332993, -0.0035089447628706694, -0.012112033553421497, 0.022795487195253372, -0.012292184866964817, -0.004568170756101608, -0.009812422096729279, 0.01854793354868889, 0.056171927601099014, -0.02031582221388817, -0.04653933271765709, 0.012171205133199692, -0.023280693218111992, 0.045099008828401566, -0.013913468457758427, -0.05666699633002281, 0.006281685084104538, 0.04391475021839142, -0.013154570013284683, 0.05917074903845787, -0.03313837945461273, 0.011077258735895157, 0.1435825675725937, -0.08131035417318344, 0.029401976615190506, 0.051270991563797, -0.056045375764369965, 0.0759945884346962, 0.027184825390577316, 0.037638574838638306, -0.01925448141992092, -0.04219723865389824, -0.04753323271870613, -0.026220250874757767, -0.05257437005639076, 0.03152363374829292, -0.030713632702827454, 0.08017446100711823, 0.1375001072883606, -0.007119394838809967, 0.0008774566813372076, -0.01895379275083542, -0.02904619835317135, 0.026535648852586746, -0.03795463219285011, 0.038391172885894775, 0.03263328596949577, -0.01672680489718914, 0.04945239797234535, 0.0356559194624424, 0.10378651320934296, 0.04553841054439545, -0.02624042145907879, -0.08445695787668228, -0.028884438797831535, 0.03503779321908951, -0.07754935324192047, -0.04646606743335724, -0.015739621594548225], [-0.012616950087249279, 0.031632423400878906, 0.02824573405086994, 0.043273963034152985, -0.03693094104528427, 0.02555047906935215, -0.0007546670967712998, -0.02563617192208767, -0.045056942850351334, 0.05036287009716034, -0.010812400840222836, -0.02394365519285202, 0.017793742939829826, -0.0018563780467957258, -0.04664710909128189, 0.024280373007059097, -0.051420602947473526, -0.04414362460374832, -0.07362613081932068, 0.009426617994904518, 0.03683137148618698, -0.07448554784059525, 0.07038574665784836, -0.02410862222313881, -0.033013466745615005, -0.09983660280704498, 0.03624308854341507, -0.04980749264359474, 0.06886478513479233, 0.04939847066998482, 0.026575742289423943, -0.010516381822526455, -0.007917188107967377, -0.01629902422428131, -0.0018725640838965774, -0.04182082414627075, -0.03226321190595627, -0.06976454704999924, 0.029652582481503487, 0.06400813162326813, 0.047543514519929886, -0.01424782071262598, -0.024030692875385284, 0.01738387532532215, -0.04180657118558884, -0.07548750936985016, 0.028237901628017426, 0.04495694115757942, -0.013362080790102482, -0.05058295652270317, -0.06938359886407852, 0.03638947382569313, 0.03313935175538063, 0.03247788920998573, -0.02148393727838993, 0.017133045941591263, -0.03917214274406433, -0.04742654412984848, 0.0013882297789677978, 0.08584246039390564, 0.00787929818034172, -0.020393401384353638, -0.03243621438741684, 0.0009926758939400315, 0.0246542077511549, -0.027532044798135757, 0.06228160485625267, 0.024344665929675102, -0.005375290289521217, 0.07957879453897476, -0.05049629509449005, -0.005061720963567495, 0.022652361541986465, 0.04838639125227928, -0.03369305282831192, -0.08075924217700958, -0.010693298652768135, 0.007272043731063604, -0.04430331662297249, 0.07311378419399261, 0.02216550149023533, -0.018964452669024467, 0.06529320776462555, -0.006038936320692301, 0.014888012781739235, -0.03237508237361908, 0.007326619233936071, -0.05552707985043526, 0.06260236352682114, 0.04945523664355278, -0.035834163427352905, -0.019724266603589058, -0.000638160272501409, 0.0587383434176445, -0.015205501578748226, 0.0533212386071682, 0.04167860001325607, -0.018380023539066315, -0.021638963371515274, -0.041305989027023315, 0.004596088547259569, -0.05312487110495567, 0.044866036623716354, 0.0878615528345108, -0.029618049040436745, -0.02628052607178688, 0.012682370841503143, -0.020258629694581032, -0.0344572439789772, 0.060333967208862305, 0.07658785581588745, -0.010517134331166744, -0.04161125794053078, -0.005784609355032444, -0.04816322773694992, 0.03755480796098709, 0.007698297034949064, -0.0140110794454813, -0.0413738489151001, -0.0012183805229142308, -0.004989722743630409, -0.046008091419935226, 0.08480480313301086, 0.04716652259230614, 0.019476672634482384, -0.07148829847574234, 0.06915068626403809, 0.018288644030690193], [0.031624551862478256, 0.04454813897609711, 0.06721777468919754, 0.03911581635475159, -0.007345664314925671, 0.06164805591106415, -0.013437419198453426, 0.00012127607624279335, -0.013199708424508572, 0.08196382969617844, 0.0013477005995810032, -0.042746033519506454, -0.03734099119901657, 0.05721959099173546, -0.038189731538295746, 0.007987086661159992, -0.06725858896970749, -0.028907980769872665, -0.023857079446315765, -0.014082721434533596, 0.02536953054368496, -0.028044959530234337, 0.05540843680500984, -0.0004125961859244853, 0.0006377261015586555, -0.09275226294994354, 0.0064408970065414906, -0.03487953171133995, -0.0403716042637825, -0.01090170256793499, 0.04419358819723129, -0.022204959765076637, -0.04399069771170616, 0.051535263657569885, 0.005098868161439896, 0.04163189232349396, -0.012958398088812828, -0.018254881724715233, 0.02176772616803646, -0.012103208340704441, 0.007600676268339157, 0.07246092706918716, 0.007501520216464996, -0.006494844797998667, 0.012205811217427254, -0.01592632383108139, 0.06549826264381409, 0.07041709125041962, -0.03329810872673988, -0.021710574626922607, 0.06573754549026489, 0.05193129554390907, 0.029039178043603897, -0.025866340845823288, 0.011289532296359539, -0.006305732298642397, -0.08662958443164825, -0.042641155421733856, 0.027602380141615868, 0.03747352212667465, -0.014877154491841793, 0.01855306327342987, 0.05064741522073746, -0.023166829720139503, -0.012138237245380878, 0.02905053272843361, 0.03699590265750885, 0.06507750600576401, 0.019805051386356354, 0.0050961934030056, -0.018677843734622, -0.029889976605772972, -0.043830208480358124, -0.02831924520432949, -0.030270827934145927, -0.07084773480892181, 0.06442617624998093, 0.046229876577854156, -0.07785286754369736, 0.059777840971946716, 0.08245512843132019, -0.060530055314302444, -0.01486926432698965, -0.05209648236632347, -0.031005436554551125, 0.014976468868553638, 0.0637623518705368, -0.08863581717014313, -0.0013889445690438151, 0.06697975844144821, 0.02253740280866623, 0.04659362882375717, 0.05217255651950836, 0.022371001541614532, 