[[-0.02839449606835842, -0.004637892358005047, -0.03137912601232529, 2.0542428493499756, -0.012624301016330719, -1.2971926927566528, -0.04692244529724121, -1.3209447860717773, 2.0615482330322266, -1.3307243585586548, -1.2986325025558472, 0.895686149597168, -1.3252414464950562, 2.081467390060425, 0.8978860974311829, 0.9317243099212646], [-0.010314643383026123, -0.04465902969241142, -0.0008035652572289109, -1.7317817211151123, -0.0010865554213523865, 1.2973002195358276, -0.0017475374042987823, 1.3213834762573242, -1.6865354776382446, 1.3308203220367432, 1.2987595796585083, 0.8956941366195679, 1.3253154754638672, -1.7553679943084717, 0.8978807926177979, 0.9317014217376709]]
[[0.0, -0.008386388421058655, -0.018178217113018036, -0.001375797437503934, 0.0, -0.0001471184950787574, 0.0, -8.132444054353982e-05, -0.004446468316018581, -8.828686986817047e-05, -0.00013740206486545503, -0.8956647515296936, -0.00035319506423547864, -3.074486448895186e-05, -0.8978944420814514, -0.9317014217376709]]
[[0.04227527603507042], [-0.001348191173747182], [0.019028756767511368], [-1.9326283931732178], [0.013203393667936325], [-1.7962273359298706], [0.03719234839081764], [-1.7728102207183838], [-1.9391694068908691], [-1.7736915349960327], [-1.8144938945770264], [1.7423524856567383], [-1.7448076009750366], [-1.8362014293670654], [1.7310861349105835], [1.6838314533233643]]
[[4.537140369415283]]
