[[-0.04866912588477135, -0.025413215160369873, -0.01832043007016182, -1.3856680393218994, 1.0232816934585571, -0.0014045238494873047], [-0.046593308448791504, -0.006111644208431244, -0.03947458416223526, 1.3856407403945923, -1.0152984857559204, -0.017207395285367966]]
[0.0, 0.0, 0.0, 2.8023703634971753e-05, 1.3354688882827759, 0.0]
[[0.03850576654076576, 0.04837138578295708, 0.010989926755428314, 0.0200694240629673, 0.009857367724180222, -0.023435115814208984], [0.005646072328090668, -0.013344716280698776, 0.032843563705682755, -0.035058747977018356, 0.0054126158356666565, -0.0071541666984558105], [0.04495295509696007, -0.04325389862060547, -0.03248780965805054, 0.03591993823647499, -0.047817230224609375, -0.021758008748292923], [-0.003794204443693161, 2.1423370838165283, 2.162350654602051, -0.043195534497499466, 2.152677536010742, -1.2505385875701904], [-0.0185815691947937, 2.089442729949951, 2.196600914001465, -0.03994797542691231, 2.0632290840148926, 1.3383207321166992], [-0.0018457546830177307, -0.0072866082191467285, -0.029749786481261253, -0.021764909848570824, 0.028280343860387802, 0.0011494532227516174]]
[0.0, -2.476036548614502, -2.404364585876465, 0.0, -2.3555870056152344, 1.3037115335464478]
[[-0.043630052357912064], [-2.190871238708496], [-2.19616961479187], [0.02239055559039116], [-2.2076239585876465], [2.022841691970825]]
[2.282261371612549]
