[[-0.7302414774894714, -1.1232842206954956, 1.2929826974868774, 1.059116005897522, -1.1090888977050781, -0.03804739564657211], [1.145607590675354, 1.1232973337173462, -0.9558442234992981, -1.05910062789917, 1.109175682067871, -0.03851114585995674]]
[[0.8897711634635925, -7.485800324502634e-06, 0.48647475242614746, 1.245413386641303e-06, -1.6073567167040892e-05, 0.0]]
[[1.0107237100601196, -0.5323072075843811, 0.9850664138793945, -1.236702799797058, -0.05131780728697777, 1.0325820446014404], [-1.3041132688522339, 1.5087988376617432, 1.54498291015625, -0.26072725653648376, -0.0020698215812444687, -1.2921514511108398], [0.13098643720149994, 1.1712862253189087, -1.2145626544952393, 1.5236390829086304, 0.0017334655858576298, 0.12497549504041672], [-1.16890549659729, 1.3930432796478271, -0.21546387672424316, 1.519144058227539, -0.02493233233690262, -1.1519579887390137], [-1.3075783252716064, 1.5146430730819702, 1.5099413394927979, -0.24814385175704956, 0.01136505976319313, -1.3454571962356567], [0.04575211927294731, 0.009891487658023834, -0.016341041773557663, 0.030002262443304062, 0.02537698671221733, -0.01165391132235527]]
[[0.8580396771430969, -0.09614066034555435, -0.2856300473213196, 0.3591616451740265, -0.020617472007870674, 0.8420681953430176]]
[[-1.4702999591827393], [1.5162855386734009], [1.5883318185806274], [1.5116767883300781], [-0.03785349056124687], [-1.5168616771697998]]
[[-2.6678578853607178]]
