[[-0.9831925630569458, 0.9938125014305115, -0.9814691543579102, 1.0215563774108887, -0.9918358325958252, -0.04166337102651596], [0.9837939739227295, -0.9950160980224609, 0.9809058308601379, -1.0236726999282837, 0.9919841289520264, -0.020040227100253105]]
[[-0.001370263402350247, -0.0019928705878555775, -0.000882310327142477, -0.002119847107678652, -0.0009366066078655422, 0.0]]
[[-0.0065672025084495544, 0.003386556403711438, -0.1316472440958023, 1.4360324144363403, 0.02096116729080677, 1.414047360420227], [0.04353360831737518, 0.012783783487975597, 1.4559940099716187, 1.4441511631011963, 0.004104666877537966, 1.4069327116012573], [0.010329235345125198, -0.0043416996486485004, -0.2773386836051941, 1.4376999139785767, -0.002266550436615944, 1.4713211059570312], [-0.038325633853673935, -0.029158905148506165, 1.3750247955322266, 1.4067726135253906, 0.0007827971712686121, 1.4132059812545776], [-0.028090162202715874, -0.03052782267332077, -0.18591268360614777, 1.452270269393921, -0.06126849725842476, 1.4508394002914429], [-0.0022857896983623505, 0.0418899767100811, 0.042360905557870865, -0.025114823132753372, 0.025654900819063187, -0.012388180941343307]]
[[-0.005344172939658165, -0.010412233881652355, -0.0029552369378507137, -0.0022278930991888046, -0.016674773767590523, -0.00284759234637022]]
[[-0.04585868492722511], [0.001465052249841392], [-1.4838800430297852], [-1.4850858449935913], [0.05319163575768471], [-1.4808317422866821]]
[[4.1096510887146]]
