[[-0.004363656509667635, -1.149344801902771, -0.04031948000192642, -0.02814347855746746, 0.801651656627655, 0.8244071006774902], [-0.027668846771121025, 1.1491187810897827, -0.036671292036771774, -0.04348165914416313, -0.8031189441680908, -0.824821949005127]]
[-0.008128498680889606, -0.00038246045005507767, 0.0, 0.0, -0.0003270816523581743, -0.00021808050223626196]
[[0.03154610097408295, 0.031755849719047546, -0.016358714550733566, 0.019368436187505722, 0.016418633982539177, -0.04502226412296295], [0.0016449016984552145, 1.567435622215271, 1.5167667865753174, -0.026959681883454323, 1.47354257106781, 1.6050196886062622], [-0.030896401032805443, -0.037184108048677444, 0.028566528111696243, 0.03414018079638481, -0.04049874469637871, -0.012397181242704391], [0.04471835866570473, -0.03106745518743992, -0.03338658809661865, -0.037598419934511185, 0.010414160788059235, 0.0004881620407104492], [-0.012929352931678295, 1.1655707359313965, 1.222039818763733, -0.03919272497296333, 1.1576513051986694, 1.239966630935669], [0.010347160510718822, 1.1823018789291382, 1.1821726560592651, -0.0017072941409423947, 1.1804701089859009, 1.1757346391677856]]
[-0.019054824486374855, -0.0011839986545965075, -0.00029615609673783183, -0.005978338420391083, -0.00046180145000107586, 1.6090682038338855e-05]
[[-0.023543450981378555], [1.4300892353057861], [1.3769148588180542], [0.005013016983866692], [1.334721565246582], [1.392363429069519]]
[-3.1891512870788574]
