[[-0.00394563190639019, 8.796104521024972e-05, 1.4935599565505981, -1.4834579229354858, -0.021070564165711403, 1.1470189094543457, -0.03283359855413437, 1.0850825309753418, 1.517483115196228, 1.1278785467147827, -1.487342357635498, -0.0002523004077374935, 1.1118146181106567, 1.479967713356018, -1.4476639032363892, 1.1162298917770386], [-0.04133075475692749, -0.021984219551086426, -1.4933741092681885, 1.4836238622665405, -0.023148609325289726, 1.1272181272506714, -0.0064809322357177734, 1.0850493907928467, -1.517390489578247, 1.1346805095672607, 1.4873297214508057, -0.023573970422148705, 1.1118041276931763, -1.480049729347229, 1.4478057622909546, 1.1162678003311157]]
[[-0.014629384502768517, -0.018840599805116653, -0.00012217936455272138, -2.892903285101056e-05, 0.0, -7.25361896911636e-05, 0.0, -1.0850497484207153, -4.154966154601425e-05, -0.00014533291687257588, 2.250986835861113e-05, -0.017891282215714455, -1.111825704574585, -6.368517642840743e-05, -0.00011400840594433248, -1.1162346601486206]]
[[-0.01191876083612442], [-0.00499305734410882], [2.039342164993286], [2.055718183517456], [0.003045845776796341], [1.0492830276489258], [-0.00919489935040474], [-2.1073896884918213], [2.022207736968994], [1.0507054328918457], [2.052851676940918], [-0.00584842124953866], [-2.068265914916992], [2.0381712913513184], [2.1008856296539307], [-2.0734446048736572]]
[[-4.691939353942871]]
